{"learner":{"attributes":{"best_iteration":"82","best_score":"418.81429380043073","scikit_learn":"{\"_estimator_type\": \"regressor\"}"},"feature_names":["hour","minute","day","month","year","dayofweek","dayofyear","calenderweek"],"feature_types":["int","int","int","int","int","int","int","int"],"gradient_booster":{"model":{"gbtree_model_param":{"num_parallel_tree":"1","num_trees":"85"},"iteration_indptr":[0,1,2,3,4,5,6,7,8,9,10,11,12,13,14,15,16,17,18,19,20,21,22,23,24,25,26,27,28,29,30,31,32,33,34,35,36,37,38,39,40,41,42,43,44,45,46,47,48,49,50,51,52,53,54,55,56,57,58,59,60,61,62,63,64,65,66,67,68,69,70,71,72,73,74,75,76,77,78,79,80,81,82,83,84,85],"tree_info":[0,0,0,0,0,0,0,0,0,0,0,0,0,0,0,0,0,0,0,0,0,0,0,0,0,0,0,0,0,0,0,0,0,0,0,0,0,0,0,0,0,0,0,0,0,0,0,0,0,0,0,0,0,0,0,0,0,0,0,0,0,0,0,0,0,0,0,0,0,0,0,0,0,0,0,0,0,0,0,0,0,0,0,0,0],"trees":[{"base_weights":[-1.9071353E-5,-2.5662668E2,2.1257944E2,-4.1617444E2,-1.1768953E2,5.171599E2,-3.6999594E2,-4.8369907E2,-2.0828882E2,1.4597798E1,-2.7904987E2,5.4070154E2,1.254658E2,-4.5603015E2,-3.0335934E2,-5.23327E2,-3.2948996E2,9.4702545E1,-3.4604416E2,7.66712E1,-2.7670798E2,-3.534328E2,5.060105E0,6.546684E2,4.6691647E2,-3.5284076E2,5.3293713E2,-1.7996507E2,-5.0973892E2,-2.1661497E2,-4.3100446E2,-5.9353467E2,-4.968996E2,-5.0757596E2,-2.6083716E2,2.5096811E2,-2.5404738E2,-1.8345631E2,-5.188432E2,1.3185417E2,-3.1984844E1,-3.6880838E2,-2.0517891E2,-2.3920467E2,-4.3685287E2,2.3348541E2,-1.784258E2,4.248556E2,7.3661145E2,7.827255E2,3.7355945E2,2.136578E1,-4.8432153E2,4.30165E2,7.447229E2,-2.3600803E2,2.1302129E2,-5.8974506E2,-4.7209015E2,-4.0832095E2,-1.6866403E2,-1.14378006E2,-4.880355E2,-5.691365E0,-6.4906216E0,-4.413218E0,-5.9083514E0,-4.718011E0,-6.22059E0,-1.3975837E0,-4.219056E0,-1.8114854E0,4.3789296E0,-5.7889285E0,-3.5448155E-1,-4.441252E0,3.2685137E-1,-4.356893E0,-6.143131E0,-3.9007273E-1,1.6530478E0,-5.752911E-1,2.4570525E0,-4.130384E0,-5.251154E-1,2.9853027E0,-2.3792872E0,-9.46723E-1,-3.3522606E0,-3.9265263E0,-4.791437E0,-3.8156992E-1,3.5299523E0,-2.9681282E0,1.1698997E0,6.941404E0,-2.4037232E-1,8.272458E0,4.6331925E0,5.3673887E0,8.241546E0,2.743755E0,6.1842484E0,1.5010492E0,-1.3075001E0,-5.8565354E0,-4.217166E0,8.66501E0,3.9149032E0,7.817153E0,5.0471134E0,-1.5352101E0,-4.3633204E0,6.2456346E0,-6.2898917E0,-5.9843845E0,2.3755577E-1,-4.27322E0,-5.816488E0,-3.0128992E0,-4.5040607E0,-3.2467604E0,-1.442709E0,-1.4863539E-1,-3.78045E0,-5.0704246E0,-3.2790804E0],"categories":[],"categories_nodes":[],"categories_segments":[],"categories_sizes":[],"default_left":[0,0,0,0,0,0,0,0,0,0,0,0,0,0,0,0,0,0,0,0,0,0,0,0,0,0,0,0,0,0,0,0,0,0,0,0,0,0,0,0,0,0,0,0,0,0,0,0,0,0,0,0,0,0,0,0,0,0,0,0,0,0,0,0,0,0,0,0,0,0,0,0,0,0,0,0,0,0,0,0,0,0,0,0,0,0,0,0,0,0,0,0,0,0,0,0,0,0,0,0,0,0,0,0,0,0,0,0,0,0,0,0,0,0,0,0,0,0,0,0,0,0,0,0,0,0,0],"id":0,"left_children":[1,3,5,7,9,11,13,15,17,19,21,23,25,27,29,31,33,35,37,39,41,43,45,47,49,51,53,55,57,59,61,63,65,67,69,71,73,75,77,79,81,83,85,87,89,91,93,95,97,99,101,103,105,107,109,111,113,115,117,119,121,123,125,-1,-1,-1,-1,-1,-1,-1,-1,-1,-1,-1,-1,-1,-1,-1,-1,-1,-1,-1,-1,-1,-1,-1,-1,-1,-1,-1,-1,-1,-1,-1,-1,-1,-1,-1,-1,-1,-1,-1,-1,-1,-1,-1,-1,-1,-1,-1,-1,-1,-1,-1,-1,-1,-1,-1,-1,-1,-1,-1,-1,-1,-1,-1,-1],"loss_changes":[3.2194235E9,5.926331E8,5.7274573E9,1.7459456E8,3.051014E8,1.953833E8,6.339507E7,5.722829E7,1.2746098E8,1.42058E8,1.360767E8,1.6782438E8,2.346482E8,7.159731E7,6.908755E7,1.356672E7,2.3378432E7,5.210897E7,5.8876304E7,3.883407E7,9.015552E6,4.85216E7,5.6079108E7,1.4760883E8,3.5763098E8,2.7267672E7,1.3827344E7,1.7427304E7,1.191168E7,3.414555E7,4.5575584E7,2.391552E6,2.81088E7,1.893568E6,2.7048776E7,5.3389736E7,2.0998728E7,6.1032196E7,7.805984E6,2.4554184E7,1.5491914E7,8.400184E6,1.292171E7,2.9889656E7,5.322496E6,1.9361976E7,2.5984984E7,2.4987571E8,1.4300851E8,2.7776512E7,2.2744538E8,2.8591985E6,2.354016E6,7.08584E6,1.47884E6,1.1351188E7,3.4698604E7,6.899712E6,1.3273792E7,3.215592E6,1.1290104E7,1.014875E7,6.349952E6,0E0,0E0,0E0,0E0,0E0,0E0,0E0,0E0,0E0,0E0,0E0,0E0,0E0,0E0,0E0,0E0,0E0,0E0,0E0,0E0,0E0,0E0,0E0,0E0,0E0,0E0,0E0,0E0,0E0,0E0,0E0,0E0,0E0,0E0,0E0,0E0,0E0,0E0,0E0,0E0,0E0,0E0,0E0,0E0,0E0,0E0,0E0,0E0,0E0,0E0,0E0,0E0,0E0,0E0,0E0,0E0,0E0,0E0,0E0,0E0,0E0,0E0,0E0,0E0],"parents":[2147483647,0,0,1,1,2,2,3,3,4,4,5,5,6,6,7,7,8,8,9,9,10,10,11,11,12,12,13,13,14,14,15,15,16,16,17,17,18,18,19,19,20,20,21,21,22,22,23,23,24,24,25,25,26,26,27,27,28,28,29,29,30,30,31,31,32,32,33,33,34,34,35,35,36,36,37,37,38,38,39,39,40,40,41,41,42,42,43,43,44,44,45,45,46,46,47,47,48,48,49,49,50,50,51,51,52,52,53,53,54,54,55,55,56,56,57,57,58,58,59,59,60,60,61,61,62,62],"right_children":[2,4,6,8,10,12,14,16,18,20,22,24,26,28,30,32,34,36,38,40,42,44,46,48,50,52,54,56,58,60,62,64,66,68,70,72,74,76,78,80,82,84,86,88,90,92,94,96,98,100,102,104,106,108,110,112,114,116,118,120,122,124,126,-1,-1,-1,-1,-1,-1,-1,-1,-1,-1,-1,-1,-1,-1,-1,-1,-1,-1,-1,-1,-1,-1,-1,-1,-1,-1,-1,-1,-1,-1,-1,-1,-1,-1,-1,-1,-1,-1,-1,-1,-1,-1,-1,-1,-1,-1,-1,-1,-1,-1,-1,-1,-1,-1,-1,-1,-1,-1,-1,-1,-1,-1,-1,-1],"split_conditions":[1.59E2,1.3E1,2.57E2,1.2E2,1.9E1,2.51E2,1.1E1,1.1E1,1.3E2,1.23E2,1.2E2,2.019E3,2.019E3,2.66E2,1.9E1,3.1E1,3.5E1,8E0,6E0,8.4E1,1.3E1,2.1E1,9E0,1.85E2,8E0,9E0,1.7E1,2.1E1,4E0,4E1,3.9E1,1.9E1,7.7E1,2.2E1,8E1,2.019E3,3E0,1.45E2,1.8E1,1.4E1,1.2E2,1.57E2,1.5E1,4.8E1,5.6E1,2.019E3,2.8E1,1.79E2,2.39E2,1E0,2.5E1,1.3E1,1.1E1,1E1,2.3E1,8E0,6E0,2.019E3,2.4E1,1.8E1,1.2E1,5E0,3.55E2,-5.691365E0,-6.4906216E0,-4.413218E0,-5.9083514E0,-4.718011E0,-6.22059E0,-1.3975837E0,-4.219056E0,-1.8114854E0,4.3789296E0,-5.7889285E0,-3.5448155E-1,-4.441252E0,3.2685137E-1,-4.356893E0,-6.143131E0,-3.9007273E-1,1.6530478E0,-5.752911E-1,2.4570525E0,-4.130384E0,-5.251154E-1,2.9853027E0,-2.3792872E0,-9.46723E-1,-3.3522606E0,-3.9265263E0,-4.791437E0,-3.8156992E-1,3.5299523E0,-2.9681282E0,1.1698997E0,6.941404E0,-2.4037232E-1,8.272458E0,4.6331925E0,5.3673887E0,8.241546E0,2.743755E0,6.1842484E0,1.5010492E0,-1.3075001E0,-5.8565354E0,-4.217166E0,8.66501E0,3.9149032E0,7.817153E0,5.0471134E0,-1.5352101E0,-4.3633204E0,6.2456346E0,-6.2898917E0,-5.9843845E0,2.3755577E-1,-4.27322E0,-5.816488E0,-3.0128992E0,-4.5040607E0,-3.2467604E0,-1.442709E0,-1.4863539E-1,-3.78045E0,-5.0704246E0,-3.2790804E0],"split_indices":[6,0,6,6,0,6,0,0,6,6,6,4,4,6,0,6,6,0,0,6,2,0,2,6,2,2,0,2,0,7,7,2,6,6,6,4,5,6,2,0,6,6,2,6,6,4,2,6,6,5,2,0,2,2,0,0,5,4,2,2,0,5,6,0,0,0,0,0,0,0,0,0,0,0,0,0,0,0,0,0,0,0,0,0,0,0,0,0,0,0,0,0,0,0,0,0,0,0,0,0,0,0,0,0,0,0,0,0,0,0,0,0,0,0,0,0,0,0,0,0,0,0,0,0,0,0,0],"split_type":[0,0,0,0,0,0,0,0,0,0,0,0,0,0,0,0,0,0,0,0,0,0,0,0,0,0,0,0,0,0,0,0,0,0,0,0,0,0,0,0,0,0,0,0,0,0,0,0,0,0,0,0,0,0,0,0,0,0,0,0,0,0,0,0,0,0,0,0,0,0,0,0,0,0,0,0,0,0,0,0,0,0,0,0,0,0,0,0,0,0,0,0,0,0,0,0,0,0,0,0,0,0,0,0,0,0,0,0,0,0,0,0,0,0,0,0,0,0,0,0,0,0,0,0,0,0,0],"sum_hessian":[5.9012E4,2.6736E4,3.2276E4,1.2444E4,1.4292E4,2.1195E4,1.1081E4,9.392E3,3.052E3,7.854E3,6.438E3,1.9993E4,1.202E3,4.834E3,6.247E3,7.47E3,1.922E3,9.54E2,2.098E3,6.475E3,1.379E3,5.102E3,1.336E3,7.854E3,1.2139E4,5.53E2,6.49E2,7.88E2,4.046E3,3.721E3,2.526E3,2.037E3,5.433E3,5.33E2,1.389E3,6.59E2,2.95E2,1.082E3,1.016E3,4.294E3,2.181E3,6.01E2,7.78E2,2.155E3,2.947E3,5.95E2,7.41E2,2.066E3,5.788E3,2.768E3,9.371E3,1.44E2,4.09E2,4.39E2,2.1E2,6.9E2,9.8E1,1.29E3,2.756E3,7.43E2,2.978E3,3.86E2,2.14E3,1.423E3,6.14E2,3.417E3,2.016E3,4.1E2,1.23E2,7.94E2,5.95E2,1.99E2,4.6E2,1.18E2,1.77E2,4.9E2,5.92E2,5.46E2,4.7E2,7.03E2,3.591E3,1.998E3,1.83E2,5.27E2,7.4E1,4.7E1,7.31E2,8.61E2,1.294E3,1.446E3,1.501E3,1.82E2,4.13E2,5.29E2,2.12E2,1.291E3,7.75E2,4.345E3,1.443E3,4.01E2,2.367E3,6.671E3,2.7E3,7.8E1,6.6E1,1.53E2,2.56E2,3.4E1,4.05E2,1.8E2,3E1,4.9E2,2E2,6.6E1,3.2E1,1.272E3,1.8E1,1.96E3,7.96E2,2.12E2,5.31E2,4.01E2,2.577E3,2.81E2,1.05E2,1.911E3,2.29E2],"tree_param":{"num_deleted":"0","num_feature":"8","num_nodes":"127","size_leaf_vector":"1"}},{"base_weights":[-1.0160508E-3,-2.5406303E2,2.1045398E2,-4.120173E2,-1.1651352E2,5.1199103E2,-3.6630017E2,-4.7886624E2,-2.062119E2,1.4451697E1,-2.762612E2,5.352966E2,1.2422407E2,-4.5147437E2,-3.0032968E2,-5.1809674E2,-3.2620367E2,9.3751785E1,-3.425907E2,7.590497E1,-2.7394385E2,-3.4990103E2,5.010513E0,3.6891864E2,5.848911E2,-3.493302E2,5.276469E2,-1.7817294E2,-5.0464545E2,-2.1445212E2,-4.2669928E2,-5.876053E2,-4.9193253E2,-5.025207E2,-2.5823282E2,2.4846233E2,-2.5152765E2,-1.5331905E2,-4.8844806E2,1.3053589E2,-3.1664108E1,-3.6512802E2,-2.0312636E2,-2.3681464E2,-4.324873E2,2.3115584E2,-1.7664397E2,1.13887695E2,4.193631E2,7.0863007E2,4.8790387E2,2.1153461E1,-4.795029E2,4.2589194E2,7.373367E2,-2.3365648E2,2.1089066E2,-5.8385205E2,-4.6737292E2,-4.0424783E2,-1.6697899E2,-1.1324439E2,-4.8315903E2,-5.634491E0,-6.4258213E0,-4.3690987E0,-5.8492975E0,-4.670945E0,-6.158886E0,-1.3836255E0,-4.176936E0,-1.7934613E0,4.3352356E0,-5.731526E0,-3.5095653E-1,-4.171345E0,6.455531E-1,-3.7741492E0,-5.7529855E0,-3.861775E-1,1.6365216E0,-5.6954086E-1,2.4326158E0,-4.089158E0,-5.199345E-1,2.9560716E0,-2.355527E0,-9.372668E-1,-3.318764E0,-3.8872883E0,-4.7435546E0,-3.7777483E-1,3.494738E0,-2.938503E0,1.1582555E0,4.1563206E0,-3.5531201E0,3.4437325E0,5.880049E0,7.600155E0,5.713948E0,7.873152E0,3.1179996E0,1.486229E0,-1.2946203E0,-5.798351E0,-4.1751585E0,8.580836E0,3.8758504E0,7.7394137E0,4.9982705E0,-1.519889E0,-4.319904E0,6.1841106E0,-6.228899E0,-5.9245877E0,2.3530531E-1,-4.2305098E0,-5.7583957E0,-2.9829116E0,-4.4591045E0,-3.2143736E0,-1.4282876E0,-1.4715447E-1,-3.743002E0,-5.0197463E0,-3.2464323E0],"categories":[],"categories_nodes":[],"categories_segments":[],"categories_sizes":[],"default_left":[0,0,0,0,0,0,0,0,0,0,0,0,0,0,0,0,0,0,0,0,0,0,0,0,0,0,0,0,0,0,0,0,0,0,0,0,0,0,0,0,0,0,0,0,0,0,0,0,0,0,0,0,0,0,0,0,0,0,0,0,0,0,0,0,0,0,0,0,0,0,0,0,0,0,0,0,0,0,0,0,0,0,0,0,0,0,0,0,0,0,0,0,0,0,0,0,0,0,0,0,0,0,0,0,0,0,0,0,0,0,0,0,0,0,0,0,0,0,0,0,0,0,0,0,0,0,0],"id":1,"left_children":[1,3,5,7,9,11,13,15,17,19,21,23,25,27,29,31,33,35,37,39,41,43,45,47,49,51,53,55,57,59,61,63,65,67,69,71,73,75,77,79,81,83,85,87,89,91,93,95,97,99,101,103,105,107,109,111,113,115,117,119,121,123,125,-1,-1,-1,-1,-1,-1,-1,-1,-1,-1,-1,-1,-1,-1,-1,-1,-1,-1,-1,-1,-1,-1,-1,-1,-1,-1,-1,-1,-1,-1,-1,-1,-1,-1,-1,-1,-1,-1,-1,-1,-1,-1,-1,-1,-1,-1,-1,-1,-1,-1,-1,-1,-1,-1,-1,-1,-1,-1,-1,-1,-1,-1,-1,-1],"loss_changes":[3.155397E9,5.808545E8,5.613569E9,1.7111795E8,2.990334E8,1.9148493E8,6.213389E7,5.6086016E7,1.2492635E8,1.392338E8,1.3337142E8,1.6476314E8,2.3000858E8,7.017107E7,6.771373E7,1.329792E7,2.2916272E7,5.107704E7,5.787152E7,3.806098E7,8.837096E6,4.7556416E7,5.496521E7,5.905363E7,1.8448333E8,2.6727816E7,1.3555008E7,1.708112E7,1.1674816E7,3.3468464E7,4.466707E7,2.344384E6,2.7549952E7,1.85696E6,2.651152E7,5.2330456E7,2.0584422E7,5.2619876E7,1.1210144E7,2.4065784E7,1.5185004E7,8.233048E6,1.26677E7,2.9295216E7,5.21664E6,1.8977716E7,2.546926E7,1.0774724E8,4.8296576E7,4.727168E7,4.5516186E8,2.8030772E6,2.307816E6,6.952032E6,1.447592E6,1.112678E7,3.4023676E7,6.762784E6,1.301056E7,3.15132E6,1.106636E7,9.948734E6,6.222752E6,0E0,0E0,0E0,0E0,0E0,0E0,0E0,0E0,0E0,0E0,0E0,0E0,0E0,0E0,0E0,0E0,0E0,0E0,0E0,0E0,0E0,0E0,0E0,0E0,0E0,0E0,0E0,0E0,0E0,0E0,0E0,0E0,0E0,0E0,0E0,0E0,0E0,0E0,0E0,0E0,0E0,0E0,0E0,0E0,0E0,0E0,0E0,0E0,0E0,0E0,0E0,0E0,0E0,0E0,0E0,0E0,0E0,0E0,0E0,0E0,0E0,0E0,0E0,0E0],"parents":[2147483647,0,0,1,1,2,2,3,3,4,4,5,5,6,6,7,7,8,8,9,9,10,10,11,11,12,12,13,13,14,14,15,15,16,16,17,17,18,18,19,19,20,20,21,21,22,22,23,23,24,24,25,25,26,26,27,27,28,28,29,29,30,30,31,31,32,32,33,33,34,34,35,35,36,36,37,37,38,38,39,39,40,40,41,41,42,42,43,43,44,44,45,45,46,46,47,47,48,48,49,49,50,50,51,51,52,52,53,53,54,54,55,55,56,56,57,57,58,58,59,59,60,60,61,61,62,62],"right_children":[2,4,6,8,10,12,14,16,18,20,22,24,26,28,30,32,34,36,38,40,42,44,46,48,50,52,54,56,58,60,62,64,66,68,70,72,74,76,78,80,82,84,86,88,90,92,94,96,98,100,102,104,106,108,110,112,114,116,118,120,122,124,126,-1,-1,-1,-1,-1,-1,-1,-1,-1,-1,-1,-1,-1,-1,-1,-1,-1,-1,-1,-1,-1,-1,-1,-1,-1,-1,-1,-1,-1,-1,-1,-1,-1,-1,-1,-1,-1,-1,-1,-1,-1,-1,-1,-1,-1,-1,-1,-1,-1,-1,-1,-1,-1,-1,-1,-1,-1,-1,-1,-1,-1,-1,-1,-1],"split_conditions":[1.59E2,1.3E1,2.57E2,1.2E2,1.9E1,2.51E2,1.1E1,1.1E1,1.3E2,1.23E2,1.2E2,2.7E1,2.019E3,2.66E2,1.9E1,3.1E1,3.5E1,8E0,5E0,8.4E1,1.3E1,2.1E1,9E0,1.1E1,1.2E1,9E0,1.7E1,2.1E1,4E0,4E1,3.9E1,1.9E1,7.7E1,2.2E1,8E1,2.019E3,3E0,1.45E2,1.4E1,1.4E1,1.2E2,1.57E2,1.5E1,4.8E1,5.6E1,2.019E3,2.8E1,2.019E3,1.7E1,9E0,2.019E3,1.3E1,1.1E1,1E1,2.3E1,8E0,6E0,2.019E3,2.4E1,1.8E1,1.2E1,5E0,3.55E2,-5.634491E0,-6.4258213E0,-4.3690987E0,-5.8492975E0,-4.670945E0,-6.158886E0,-1.3836255E0,-4.176936E0,-1.7934613E0,4.3352356E0,-5.731526E0,-3.5095653E-1,-4.171345E0,6.455531E-1,-3.7741492E0,-5.7529855E0,-3.861775E-1,1.6365216E0,-5.6954086E-1,2.4326158E0,-4.089158E0,-5.199345E-1,2.9560716E0,-2.355527E0,-9.372668E-1,-3.318764E0,-3.8872883E0,-4.7435546E0,-3.7777483E-1,3.494738E0,-2.938503E0,1.1582555E0,4.1563206E0,-3.5531201E0,3.4437325E0,5.880049E0,7.600155E0,5.713948E0,7.873152E0,3.1179996E0,1.486229E0,-1.2946203E0,-5.798351E0,-4.1751585E0,8.580836E0,3.8758504E0,7.7394137E0,4.9982705E0,-1.519889E0,-4.319904E0,6.1841106E0,-6.228899E0,-5.9245877E0,2.3530531E-1,-4.2305098E0,-5.7583957E0,-2.9829116E0,-4.4591045E0,-3.2143736E0,-1.4282876E0,-1.4715447E-1,-3.743002E0,-5.0197463E0,-3.2464323E0],"split_indices":[6,0,6,6,0,6,0,0,6,6,6,7,4,6,0,6,6,0,0,6,2,0,2,2,2,2,0,2,0,7,7,2,6,6,6,4,5,6,2,0,6,6,2,6,6,4,2,4,0,3,4,0,2,2,0,0,5,4,2,2,0,5,6,0,0,0,0,0,0,0,0,0,0,0,0,0,0,0,0,0,0,0,0,0,0,0,0,0,0,0,0,0,0,0,0,0,0,0,0,0,0,0,0,0,0,0,0,0,0,0,0,0,0,0,0,0,0,0,0,0,0,0,0,0,0,0,0],"split_type":[0,0,0,0,0,0,0,0,0,0,0,0,0,0,0,0,0,0,0,0,0,0,0,0,0,0,0,0,0,0,0,0,0,0,0,0,0,0,0,0,0,0,0,0,0,0,0,0,0,0,0,0,0,0,0,0,0,0,0,0,0,0,0,0,0,0,0,0,0,0,0,0,0,0,0,0,0,0,0,0,0,0,0,0,0,0,0,0,0,0,0,0,0,0,0,0,0,0,0,0,0,0,0,0,0,0,0,0,0,0,0,0,0,0,0,0,0,0,0,0,0,0,0,0,0,0,0],"sum_hessian":[5.9012E4,2.6736E4,3.2276E4,1.2444E4,1.4292E4,2.1195E4,1.1081E4,9.392E3,3.052E3,7.854E3,6.438E3,1.9993E4,1.202E3,4.834E3,6.247E3,7.47E3,1.922E3,9.54E2,2.098E3,6.475E3,1.379E3,5.102E3,1.336E3,4.593E3,1.54E4,5.53E2,6.49E2,7.88E2,4.046E3,3.721E3,2.526E3,2.037E3,5.433E3,5.33E2,1.389E3,6.59E2,2.95E2,9.14E2,1.184E3,4.294E3,2.181E3,6.01E2,7.78E2,2.155E3,2.947E3,5.95E2,7.41E2,7.59E2,3.834E3,6.764E3,8.636E3,1.44E2,4.09E2,4.39E2,2.1E2,6.9E2,9.8E1,1.29E3,2.756E3,7.43E2,2.978E3,3.86E2,2.14E3,1.423E3,6.14E2,3.417E3,2.016E3,4.1E2,1.23E2,7.94E2,5.95E2,1.99E2,4.6E2,1.18E2,1.77E2,4.13E2,5.01E2,5.22E2,6.62E2,7.03E2,3.591E3,1.998E3,1.83E2,5.27E2,7.4E1,4.7E1,7.31E2,8.61E2,1.294E3,1.446E3,1.501E3,1.82E2,4.13E2,5.29E2,2.12E2,4.62E2,2.97E2,2.656E3,1.178E3,4.918E3,1.846E3,3.197E3,5.439E3,7.8E1,6.6E1,1.53E2,2.56E2,3.4E1,4.05E2,1.8E2,3E1,4.9E2,2E2,6.6E1,3.2E1,1.272E3,1.8E1,1.96E3,7.96E2,2.12E2,5.31E2,4.01E2,2.577E3,2.81E2,1.05E2,1.911E3,2.29E2],"tree_param":{"num_deleted":"0","num_feature":"8","num_nodes":"127","size_leaf_vector":"1"}},{"base_weights":[-2.0901514E-3,-2.5152495E2,2.0834956E2,-4.0790158E2,-1.15349266E2,5.0687347E2,-3.626413E2,-4.740817E2,-2.0415521E2,1.4307055E1,-2.735004E2,5.299454E2,1.2299464E2,-4.4696408E2,-2.9733026E2,-5.1291876E2,-3.2295016E2,9.281057E1,-3.3917102E2,7.5146385E1,-2.712073E2,-3.4640454E2,4.9613876E0,3.652316E2,5.7904376E2,-3.4585455E2,5.224092E2,-1.7639867E2,-4.9960287E2,-2.1231085E2,-4.2243707E2,-5.8173517E2,-4.8701508E2,-4.9751575E2,-2.5565451E2,2.4598158E2,-2.4903293E2,-1.795726E2,-5.0879333E2,1.2923082E2,-3.1346634E1,-3.6148438E2,-2.0109431E2,-2.3444846E2,-4.2816537E2,2.2884949E2,-1.7487994E2,1.1274961E2,4.151719E2,7.015457E2,4.830261E2,2.0943258E1,-4.7473218E2,4.2166132E2,7.300236E2,-2.3132835E2,2.0878131E2,-5.7801794E2,-4.627028E2,-4.0021536E2,-1.6531076E2,-1.12122E2,-4.7833127E2,-5.578186E0,-6.361668E0,-4.325421E0,-5.7908335E0,-4.624349E0,-6.097794E0,-1.3698068E0,-4.1352367E0,-1.7756164E0,4.2919774E0,-5.674692E0,-3.4746674E-1,-4.353426E0,3.250606E-1,-4.2722583E0,-6.0244226E0,-3.823213E-1,1.6201608E0,-5.638485E-1,2.408422E0,-4.048344E0,-5.1480424E-1,2.9271271E0,-2.3320038E0,-9.279051E-1,-3.2856016E0,-3.7813742E0,-4.644156E0,-3.74018E-1,3.4598749E0,-2.9091737E0,1.1467272E0,4.114847E0,-3.5177083E0,3.4093082E0,5.821298E0,7.5241685E0,5.656839E0,7.7944446E0,3.0868251E0,1.4715549E0,-1.2818674E0,-5.740744E0,-4.1335692E0,1.3294119E0,4.7592473E0,7.6624475E0,4.9498997E0,-1.504721E0,-4.27692E0,6.123193E0,-6.1684976E0,-5.8653893E0,2.3307623E-1,-4.188226E0,-5.7008843E0,-2.9532225E0,-4.4145975E0,-3.18231E0,-1.4140104E0,-1.4568812E-1,-3.7059255E0,-4.969575E0,-3.2141092E0],"categories":[],"categories_nodes":[],"categories_segments":[],"categories_sizes":[],"default_left":[0,0,0,0,0,0,0,0,0,0,0,0,0,0,0,0,0,0,0,0,0,0,0,0,0,0,0,0,0,0,0,0,0,0,0,0,0,0,0,0,0,0,0,0,0,0,0,0,0,0,0,0,0,0,0,0,0,0,0,0,0,0,0,0,0,0,0,0,0,0,0,0,0,0,0,0,0,0,0,0,0,0,0,0,0,0,0,0,0,0,0,0,0,0,0,0,0,0,0,0,0,0,0,0,0,0,0,0,0,0,0,0,0,0,0,0,0,0,0,0,0,0,0,0,0,0,0],"id":2,"left_children":[1,3,5,7,9,11,13,15,17,19,21,23,25,27,29,31,33,35,37,39,41,43,45,47,49,51,53,55,57,59,61,63,65,67,69,71,73,75,77,79,81,83,85,87,89,91,93,95,97,99,101,103,105,107,109,111,113,115,117,119,121,123,125,-1,-1,-1,-1,-1,-1,-1,-1,-1,-1,-1,-1,-1,-1,-1,-1,-1,-1,-1,-1,-1,-1,-1,-1,-1,-1,-1,-1,-1,-1,-1,-1,-1,-1,-1,-1,-1,-1,-1,-1,-1,-1,-1,-1,-1,-1,-1,-1,-1,-1,-1,-1,-1,-1,-1,-1,-1,-1,-1,-1,-1,-1,-1,-1],"loss_changes":[3.0926408E9,5.693093E8,5.5019407E9,1.677111E8,2.9308605E8,1.8766387E8,6.0898176E7,5.496653E7,1.2244172E8,1.3646566E8,1.3072E8,1.6148378E8,2.254607E8,6.877299E7,6.636717E7,1.3034496E7,2.246328E7,5.006555E7,5.673163E7,3.7303308E7,8.662152E6,4.661056E7,5.387343E7,5.787904E7,1.8081331E8,2.6198644E7,1.3288032E7,1.6741814E7,1.1442688E7,3.2804784E7,4.3776736E7,2.29824E6,2.700224E7,1.821064E6,2.598492E7,5.1292188E7,2.0178288E7,5.875971E7,7.511184E6,2.3587112E7,1.4884178E7,8.069248E6,1.2418684E7,2.8712592E7,5.170624E6,1.8601076E7,2.4963782E7,1.05608856E8,4.733696E7,4.633037E7,4.4610778E8,2.748058E6,2.262544E6,6.830176E6,1.417E6,1.0906808E7,3.3361886E7,6.628544E6,1.2752512E7,3.088352E6,1.0847056E7,9.752662E6,6.098048E6,0E0,0E0,0E0,0E0,0E0,0E0,0E0,0E0,0E0,0E0,0E0,0E0,0E0,0E0,0E0,0E0,0E0,0E0,0E0,0E0,0E0,0E0,0E0,0E0,0E0,0E0,0E0,0E0,0E0,0E0,0E0,0E0,0E0,0E0,0E0,0E0,0E0,0E0,0E0,0E0,0E0,0E0,0E0,0E0,0E0,0E0,0E0,0E0,0E0,0E0,0E0,0E0,0E0,0E0,0E0,0E0,0E0,0E0,0E0,0E0,0E0,0E0,0E0,0E0],"parents":[2147483647,0,0,1,1,2,2,3,3,4,4,5,5,6,6,7,7,8,8,9,9,10,10,11,11,12,12,13,13,14,14,15,15,16,16,17,17,18,18,19,19,20,20,21,21,22,22,23,23,24,24,25,25,26,26,27,27,28,28,29,29,30,30,31,31,32,32,33,33,34,34,35,35,36,36,37,37,38,38,39,39,40,40,41,41,42,42,43,43,44,44,45,45,46,46,47,47,48,48,49,49,50,50,51,51,52,52,53,53,54,54,55,55,56,56,57,57,58,58,59,59,60,60,61,61,62,62],"right_children":[2,4,6,8,10,12,14,16,18,20,22,24,26,28,30,32,34,36,38,40,42,44,46,48,50,52,54,56,58,60,62,64,66,68,70,72,74,76,78,80,82,84,86,88,90,92,94,96,98,100,102,104,106,108,110,112,114,116,118,120,122,124,126,-1,-1,-1,-1,-1,-1,-1,-1,-1,-1,-1,-1,-1,-1,-1,-1,-1,-1,-1,-1,-1,-1,-1,-1,-1,-1,-1,-1,-1,-1,-1,-1,-1,-1,-1,-1,-1,-1,-1,-1,-1,-1,-1,-1,-1,-1,-1,-1,-1,-1,-1,-1,-1,-1,-1,-1,-1,-1,-1,-1,-1,-1,-1,-1],"split_conditions":[1.59E2,1.3E1,2.57E2,1.2E2,1.9E1,2.51E2,1.1E1,1.1E1,1.3E2,1.23E2,1.2E2,2.7E1,2.019E3,2.66E2,1.9E1,3.1E1,3.5E1,8E0,6E0,8.4E1,1.3E1,2.1E1,9E0,1.1E1,1.2E1,9E0,1.7E1,2.1E1,4E0,4E1,3.9E1,1.9E1,7.7E1,2.2E1,8E1,2.019E3,3E0,1.45E2,1.8E1,1.4E1,1.2E2,1.57E2,1.5E1,4.8E1,1.4E1,2.019E3,2.8E1,2.019E3,1.7E1,9E0,2.019E3,1.3E1,1.1E1,3E0,2.3E1,8E0,6E0,2.019E3,2.4E1,1.8E1,1.2E1,5E0,3.55E2,-5.578186E0,-6.361668E0,-4.325421E0,-5.7908335E0,-4.624349E0,-6.097794E0,-1.3698068E0,-4.1352367E0,-1.7756164E0,4.2919774E0,-5.674692E0,-3.4746674E-1,-4.353426E0,3.250606E-1,-4.2722583E0,-6.0244226E0,-3.823213E-1,1.6201608E0,-5.638485E-1,2.408422E0,-4.048344E0,-5.1480424E-1,2.9271271E0,-2.3320038E0,-9.279051E-1,-3.2856016E0,-3.7813742E0,-4.644156E0,-3.74018E-1,3.4598749E0,-2.9091737E0,1.1467272E0,4.114847E0,-3.5177083E0,3.4093082E0,5.821298E0,7.5241685E0,5.656839E0,7.7944446E0,3.0868251E0,1.4715549E0,-1.2818674E0,-5.740744E0,-4.1335692E0,1.3294119E0,4.7592473E0,7.6624475E0,4.9498997E0,-1.504721E0,-4.27692E0,6.123193E0,-6.1684976E0,-5.8653893E0,2.3307623E-1,-4.188226E0,-5.7008843E0,-2.9532225E0,-4.4145975E0,-3.18231E0,-1.4140104E0,-1.4568812E-1,-3.7059255E0,-4.969575E0,-3.2141092E0],"split_indices":[6,0,6,6,0,6,0,0,6,6,6,7,4,6,0,6,6,0,0,6,2,0,2,2,2,2,0,2,0,7,7,2,6,6,6,4,5,6,2,0,6,6,2,6,2,4,2,4,0,3,4,0,2,0,0,0,5,4,2,2,0,5,6,0,0,0,0,0,0,0,0,0,0,0,0,0,0,0,0,0,0,0,0,0,0,0,0,0,0,0,0,0,0,0,0,0,0,0,0,0,0,0,0,0,0,0,0,0,0,0,0,0,0,0,0,0,0,0,0,0,0,0,0,0,0,0,0],"split_type":[0,0,0,0,0,0,0,0,0,0,0,0,0,0,0,0,0,0,0,0,0,0,0,0,0,0,0,0,0,0,0,0,0,0,0,0,0,0,0,0,0,0,0,0,0,0,0,0,0,0,0,0,0,0,0,0,0,0,0,0,0,0,0,0,0,0,0,0,0,0,0,0,0,0,0,0,0,0,0,0,0,0,0,0,0,0,0,0,0,0,0,0,0,0,0,0,0,0,0,0,0,0,0,0,0,0,0,0,0,0,0,0,0,0,0,0,0,0,0,0,0,0,0,0,0,0,0],"sum_hessian":[5.9012E4,2.6736E4,3.2276E4,1.2444E4,1.4292E4,2.1195E4,1.1081E4,9.392E3,3.052E3,7.854E3,6.438E3,1.9993E4,1.202E3,4.834E3,6.247E3,7.47E3,1.922E3,9.54E2,2.098E3,6.475E3,1.379E3,5.102E3,1.336E3,4.593E3,1.54E4,5.53E2,6.49E2,7.88E2,4.046E3,3.721E3,2.526E3,2.037E3,5.433E3,5.33E2,1.389E3,6.59E2,2.95E2,1.082E3,1.016E3,4.294E3,2.181E3,6.01E2,7.78E2,2.155E3,2.947E3,5.95E2,7.41E2,7.59E2,3.834E3,6.764E3,8.636E3,1.44E2,4.09E2,4.39E2,2.1E2,6.9E2,9.8E1,1.29E3,2.756E3,7.43E2,2.978E3,3.86E2,2.14E3,1.423E3,6.14E2,3.417E3,2.016E3,4.1E2,1.23E2,7.94E2,5.95E2,1.99E2,4.6E2,1.18E2,1.77E2,4.9E2,5.92E2,5.46E2,4.7E2,7.03E2,3.591E3,1.998E3,1.83E2,5.27E2,7.4E1,4.7E1,7.31E2,8.61E2,1.294E3,1.243E3,1.704E3,1.82E2,4.13E2,5.29E2,2.12E2,4.62E2,2.97E2,2.656E3,1.178E3,4.918E3,1.846E3,3.197E3,5.439E3,7.8E1,6.6E1,1.53E2,2.56E2,7E1,3.69E2,1.8E2,3E1,4.9E2,2E2,6.6E1,3.2E1,1.272E3,1.8E1,1.96E3,7.96E2,2.12E2,5.31E2,4.01E2,2.577E3,2.81E2,1.05E2,1.911E3,2.29E2],"tree_param":{"num_deleted":"0","num_feature":"8","num_nodes":"127","size_leaf_vector":"1"}},{"base_weights":[-3.269386E-3,-2.4901225E2,2.0626599E2,-4.038271E2,-1.1419663E2,5.0180673E2,-3.5901895E2,-4.6934494E2,-2.0211949E2,1.4163864E1,-2.7076715E2,5.246476E2,1.2177216E2,-4.4249887E2,-2.9436078E2,-5.1839886E2,-3.51811E2,9.187879E1,-3.3578613E2,7.4395386E1,-2.6849808E2,-3.4294296E2,4.912759E0,3.6158142E2,5.732549E2,-3.424135E2,5.1721387E2,-1.7464207E2,-4.9461066E2,-2.1019096E2,-4.1821744E2,-5.00156E2,-6.075233E2,-5.2360364E2,-2.841781E2,2.4352557E2,-2.4656294E2,-1.5000272E2,-4.7895578E2,1.2793878E2,-3.103233E1,-3.5787714E2,-1.9908258E2,-2.3210593E2,-4.2388657E2,2.2656616E2,-1.7313351E2,-2.9647574E2,3.805084E2,6.945322E2,4.7819708E2,2.0735128E1,-4.7000897E2,4.1745853E2,7.2278314E2,-2.2902345E2,2.0669305E2,-5.722421E2,-4.5807938E2,-3.9622308E2,-1.636592E2,-1.11010735E2,-4.7355176E2,-5.600521E0,-4.510821E0,-4.6998816E0,-6.2779813E0,-5.702018E0,-4.352989E0,-1.7535934E0,-4.3718157E0,-1.7579489E0,4.2491508E0,-5.618422E0,-3.4401152E-1,-4.086303E0,6.3586605E-1,-5.4243774E0,-3.3255246E0,-3.7850347E-1,1.6039636E0,-5.582129E-1,2.384468E0,-4.0079374E0,-5.0972456E-1,2.8984654E0,-2.3087153E0,-9.1863674E-1,-3.2527711E0,-3.8062606E0,-4.6528077E0,-3.7029824E-1,3.4253595E0,-2.8801367E0,1.1353137E0,-4.94633E0,1.1134192E0,2.9804404E0,5.078432E0,4.698631E0,7.251843E0,7.7165246E0,3.0559626E0,1.4570255E0,-1.2692401E0,-5.2720356E0,-3.6628418E0,8.451247E0,3.7956252E0,7.5862455E0,4.9019976E0,-1.4897047E0,-4.234363E0,6.062875E0,-6.1086817E0,-5.806781E0,2.3086797E-1,-4.146365E0,-5.643947E0,-3.5855708E0,-5.1225114E0,-3.150566E0,-1.3998759E0,-1.4423639E-1,-3.6692157E0,-4.919905E0,-3.1821077E0],"categories":[],"categories_nodes":[],"categories_segments":[],"categories_sizes":[],"default_left":[0,0,0,0,0,0,0,0,0,0,0,0,0,0,0,0,0,0,0,0,0,0,0,0,0,0,0,0,0,0,0,0,0,0,0,0,0,0,0,0,0,0,0,0,0,0,0,0,0,0,0,0,0,0,0,0,0,0,0,0,0,0,0,0,0,0,0,0,0,0,0,0,0,0,0,0,0,0,0,0,0,0,0,0,0,0,0,0,0,0,0,0,0,0,0,0,0,0,0,0,0,0,0,0,0,0,0,0,0,0,0,0,0,0,0,0,0,0,0,0,0,0,0,0,0,0,0],"id":3,"left_children":[1,3,5,7,9,11,13,15,17,19,21,23,25,27,29,31,33,35,37,39,41,43,45,47,49,51,53,55,57,59,61,63,65,67,69,71,73,75,77,79,81,83,85,87,89,91,93,95,97,99,101,103,105,107,109,111,113,115,117,119,121,123,125,-1,-1,-1,-1,-1,-1,-1,-1,-1,-1,-1,-1,-1,-1,-1,-1,-1,-1,-1,-1,-1,-1,-1,-1,-1,-1,-1,-1,-1,-1,-1,-1,-1,-1,-1,-1,-1,-1,-1,-1,-1,-1,-1,-1,-1,-1,-1,-1,-1,-1,-1,-1,-1,-1,-1,-1,-1,-1,-1,-1,-1,-1,-1,-1],"loss_changes":[3.03113E9,5.579941E8,5.3925284E9,1.6437133E8,2.8725696E8,1.8392371E8,5.9686656E7,5.397312E7,1.2000691E8,1.337526E8,1.2812125E8,1.5826944E8,2.2099781E8,6.740307E7,6.504749E7,1.0467712E7,3.2023712E7,4.907408E7,5.575851E7,3.656072E7,8.49068E6,4.568339E7,5.2803348E7,5.7331136E7,1.77216E8,2.5679968E7,1.3027584E7,1.6409252E7,1.121504E7,3.2154272E7,4.2904096E7,1.592832E7,2.830848E6,2.965488E6,3.3039472E7,5.027451E7,1.978018E7,5.057067E7,1.0832992E7,2.3117952E7,1.4589306E7,7.908696E6,1.2174562E7,2.8141592E7,5.101952E6,1.8231912E7,2.4468322E7,1.0479827E7,4.674432E7,4.624691E7,4.372338E8,2.694118E6,2.239208E6,6.810232E6,1.387032E6,1.0691184E7,3.271296E7,6.497056E6,1.2499584E7,3.067832E6,1.0632096E7,9.560452E6,5.975872E6,0E0,0E0,0E0,0E0,0E0,0E0,0E0,0E0,0E0,0E0,0E0,0E0,0E0,0E0,0E0,0E0,0E0,0E0,0E0,0E0,0E0,0E0,0E0,0E0,0E0,0E0,0E0,0E0,0E0,0E0,0E0,0E0,0E0,0E0,0E0,0E0,0E0,0E0,0E0,0E0,0E0,0E0,0E0,0E0,0E0,0E0,0E0,0E0,0E0,0E0,0E0,0E0,0E0,0E0,0E0,0E0,0E0,0E0,0E0,0E0,0E0,0E0,0E0,0E0],"parents":[2147483647,0,0,1,1,2,2,3,3,4,4,5,5,6,6,7,7,8,8,9,9,10,10,11,11,12,12,13,13,14,14,15,15,16,16,17,17,18,18,19,19,20,20,21,21,22,22,23,23,24,24,25,25,26,26,27,27,28,28,29,29,30,30,31,31,32,32,33,33,34,34,35,35,36,36,37,37,38,38,39,39,40,40,41,41,42,42,43,43,44,44,45,45,46,46,47,47,48,48,49,49,50,50,51,51,52,52,53,53,54,54,55,55,56,56,57,57,58,58,59,59,60,60,61,61,62,62],"right_children":[2,4,6,8,10,12,14,16,18,20,22,24,26,28,30,32,34,36,38,40,42,44,46,48,50,52,54,56,58,60,62,64,66,68,70,72,74,76,78,80,82,84,86,88,90,92,94,96,98,100,102,104,106,108,110,112,114,116,118,120,122,124,126,-1,-1,-1,-1,-1,-1,-1,-1,-1,-1,-1,-1,-1,-1,-1,-1,-1,-1,-1,-1,-1,-1,-1,-1,-1,-1,-1,-1,-1,-1,-1,-1,-1,-1,-1,-1,-1,-1,-1,-1,-1,-1,-1,-1,-1,-1,-1,-1,-1,-1,-1,-1,-1,-1,-1,-1,-1,-1,-1,-1,-1,-1,-1,-1],"split_conditions":[1.59E2,1.3E1,2.57E2,1.2E2,1.9E1,2.51E2,1.1E1,1E1,1.3E2,1.23E2,1.2E2,2.7E1,2.019E3,2.66E2,1.9E1,4E0,3.5E1,8E0,5E0,8.4E1,1.3E1,2.1E1,9E0,2E0,1.2E1,9E0,1.7E1,2.1E1,4E0,4E1,3.9E1,4.2E1,1E0,1.2E1,8E1,2.019E3,3E0,1.45E2,1.53E2,1.4E1,1.2E2,1.57E2,1.5E1,4.8E1,5.6E1,2.019E3,2.8E1,1.7E1,1.5E1,3E0,2.019E3,1.3E1,1.3E1,1E1,2.3E1,8E0,6E0,2.019E3,2.4E1,2.019E3,1.2E1,5E0,3.55E2,-5.600521E0,-4.510821E0,-4.6998816E0,-6.2779813E0,-5.702018E0,-4.352989E0,-1.7535934E0,-4.3718157E0,-1.7579489E0,4.2491508E0,-5.618422E0,-3.4401152E-1,-4.086303E0,6.3586605E-1,-5.4243774E0,-3.3255246E0,-3.7850347E-1,1.6039636E0,-5.582129E-1,2.384468E0,-4.0079374E0,-5.0972456E-1,2.8984654E0,-2.3087153E0,-9.1863674E-1,-3.2527711E0,-3.8062606E0,-4.6528077E0,-3.7029824E-1,3.4253595E0,-2.8801367E0,1.1353137E0,-4.94633E0,1.1134192E0,2.9804404E0,5.078432E0,4.698631E0,7.251843E0,7.7165246E0,3.0559626E0,1.4570255E0,-1.2692401E0,-5.2720356E0,-3.6628418E0,8.451247E0,3.7956252E0,7.5862455E0,4.9019976E0,-1.4897047E0,-4.234363E0,6.062875E0,-6.1086817E0,-5.806781E0,2.3086797E-1,-4.146365E0,-5.643947E0,-3.5855708E0,-5.1225114E0,-3.150566E0,-1.3998759E0,-1.4423639E-1,-3.6692157E0,-4.919905E0,-3.1821077E0],"split_indices":[6,0,6,6,0,6,0,0,6,6,6,7,4,6,0,3,6,0,0,6,2,0,2,2,2,2,0,2,0,7,7,6,0,0,6,4,5,6,6,0,6,6,2,6,6,4,2,0,0,0,4,0,0,2,0,0,5,4,2,4,0,5,6,0,0,0,0,0,0,0,0,0,0,0,0,0,0,0,0,0,0,0,0,0,0,0,0,0,0,0,0,0,0,0,0,0,0,0,0,0,0,0,0,0,0,0,0,0,0,0,0,0,0,0,0,0,0,0,0,0,0,0,0,0,0,0,0],"split_type":[0,0,0,0,0,0,0,0,0,0,0,0,0,0,0,0,0,0,0,0,0,0,0,0,0,0,0,0,0,0,0,0,0,0,0,0,0,0,0,0,0,0,0,0,0,0,0,0,0,0,0,0,0,0,0,0,0,0,0,0,0,0,0,0,0,0,0,0,0,0,0,0,0,0,0,0,0,0,0,0,0,0,0,0,0,0,0,0,0,0,0,0,0,0,0,0,0,0,0,0,0,0,0,0,0,0,0,0,0,0,0,0,0,0,0,0,0,0,0,0,0,0,0,0,0,0,0],"sum_hessian":[5.9012E4,2.6736E4,3.2276E4,1.2444E4,1.4292E4,2.1195E4,1.1081E4,9.392E3,3.052E3,7.854E3,6.438E3,1.9993E4,1.202E3,4.834E3,6.247E3,6.624E3,2.768E3,9.54E2,2.098E3,6.475E3,1.379E3,5.102E3,1.336E3,4.593E3,1.54E4,5.53E2,6.49E2,7.88E2,4.046E3,3.721E3,2.526E3,5.504E3,1.12E3,7.8E2,1.988E3,6.59E2,2.95E2,9.14E2,1.184E3,4.294E3,2.181E3,6.01E2,7.78E2,2.155E3,2.947E3,5.95E2,7.41E2,1.28E2,4.465E3,6.764E3,8.636E3,1.44E2,4.09E2,4.39E2,2.1E2,6.9E2,9.8E1,1.29E3,2.756E3,7.43E2,2.978E3,3.86E2,2.14E3,2.474E3,3.03E3,1.47E2,9.73E2,5.07E2,2.73E2,1.163E3,8.25E2,1.99E2,4.6E2,1.18E2,1.77E2,4.13E2,5.01E2,8.24E2,3.6E2,7.03E2,3.591E3,1.998E3,1.83E2,5.27E2,7.4E1,4.7E1,7.31E2,8.61E2,1.294E3,1.446E3,1.501E3,1.82E2,4.13E2,5.29E2,2.12E2,8.6E1,4.2E1,2.712E3,1.753E3,8.14E2,5.95E3,3.197E3,5.439E3,7.8E1,6.6E1,2.61E2,1.48E2,3.4E1,4.05E2,1.8E2,3E1,4.9E2,2E2,6.6E1,3.2E1,1.272E3,1.8E1,1.96E3,7.96E2,5.64E2,1.79E2,4.01E2,2.577E3,2.81E2,1.05E2,1.911E3,2.29E2],"tree_param":{"num_deleted":"0","num_feature":"8","num_nodes":"127","size_leaf_vector":"1"}},{"base_weights":[-4.3980773E-3,-2.4652457E2,2.0420323E2,-3.9979306E2,-1.1305551E2,4.9679068E2,-3.5543295E2,-4.646555E2,-2.0010344E2,1.4022125E1,-2.6806122E2,5.1940247E2,1.2056772E2,-4.3807825E2,-2.914212E2,-5.027887E2,-3.1626343E2,9.095636E1,-3.3243408E2,7.365192E1,-2.6581595E2,-3.3951602E2,4.8646092E0,3.5796652E2,5.675238E2,-3.3900516E2,5.120797E2,-1.7290297E2,-4.8966837E2,-2.0809259E2,-4.1403998E2,-5.7031464E2,-4.7737082E2,-4.8755902E2,-2.5022882E2,2.4109409E2,-2.4411748E2,-1.7577382E2,-4.989342E2,1.2665969E2,-3.0721155E1,-3.5430588E2,-1.97091E2,-2.2978682E2,-4.1965054E2,2.2430562E2,-1.7140454E2,1.0899226E2,4.072136E2,6.875887E2,4.7341635E2,2.0529064E1,-4.653307E2,4.1331174E2,7.156145E2,-2.2674152E2,2.0462567E2,-5.6652405E2,-4.5350214E2,-3.9227258E2,-1.6202411E2,-1.0991049E2,-4.6882E2,-5.466363E0,-6.242133E0,-4.2377124E0,-5.6796374E0,-4.5283284E0,-5.987275E0,-1.3386121E0,-4.0503087E0,-1.7404574E0,4.2067513E0,-5.5627103E0,-3.405909E-1,-4.267102E0,3.2296222E-1,-4.1873255E0,-5.9101777E0,-3.7472406E-1,1.5879285E0,-5.526334E-1,2.3607533E0,-3.967934E0,-5.046955E-1,2.870085E0,-2.2856598E0,-9.0946096E-1,-3.2202692E0,-3.6241097E0,-4.506141E0,-3.6661547E-1,3.3911886E0,-2.8513901E0,1.1240139E0,4.053531E0,-3.5182676E0,3.3427658E0,5.7123938E0,7.379517E0,5.530877E0,7.6393833E0,3.0254083E0,1.4426397E0,-1.2567372E0,-5.635407E0,-4.046705E0,8.369149E0,3.757762E0,7.5108023E0,4.8545594E0,-1.4748383E0,-4.19223E0,6.003151E0,-6.0494456E0,-5.748759E0,2.2868055E-1,-4.104923E0,-5.587579E0,-2.8838842E0,-4.3312793E0,-3.1191387E0,-1.3858823E0,-1.4279923E-1,-3.6328697E0,-4.8707314E0,-3.1504247E0],"categories":[],"categories_nodes":[],"categories_segments":[],"categories_sizes":[],"default_left":[0,0,0,0,0,0,0,0,0,0,0,0,0,0,0,0,0,0,0,0,0,0,0,0,0,0,0,0,0,0,0,0,0,0,0,0,0,0,0,0,0,0,0,0,0,0,0,0,0,0,0,0,0,0,0,0,0,0,0,0,0,0,0,0,0,0,0,0,0,0,0,0,0,0,0,0,0,0,0,0,0,0,0,0,0,0,0,0,0,0,0,0,0,0,0,0,0,0,0,0,0,0,0,0,0,0,0,0,0,0,0,0,0,0,0,0,0,0,0,0,0,0,0,0,0,0,0],"id":4,"left_children":[1,3,5,7,9,11,13,15,17,19,21,23,25,27,29,31,33,35,37,39,41,43,45,47,49,51,53,55,57,59,61,63,65,67,69,71,73,75,77,79,81,83,85,87,89,91,93,95,97,99,101,103,105,107,109,111,113,115,117,119,121,123,125,-1,-1,-1,-1,-1,-1,-1,-1,-1,-1,-1,-1,-1,-1,-1,-1,-1,-1,-1,-1,-1,-1,-1,-1,-1,-1,-1,-1,-1,-1,-1,-1,-1,-1,-1,-1,-1,-1,-1,-1,-1,-1,-1,-1,-1,-1,-1,-1,-1,-1,-1,-1,-1,-1,-1,-1,-1,-1,-1,-1,-1,-1,-1,-1],"loss_changes":[2.9708413E9,5.469029E8,5.2852946E9,1.6109888E8,2.8154387E8,1.8025267E8,5.849907E7,5.2993024E7,1.1761998E8,1.3109351E8,1.2557408E8,1.5512064E8,2.1662736E8,6.606029E7,6.3753696E7,1.2550656E7,2.1629888E7,4.8102252E7,5.466253E7,3.5832904E7,8.322592E6,4.4774784E7,5.1754516E7,5.628384E7,1.7369037E8,2.5171324E7,1.2770976E7,1.608329E7,1.0992E7,3.1517216E7,4.2048864E7,2.259712E6,2.6145408E7,1.79036E6,2.4985168E7,4.9277044E7,1.9389914E7,5.655975E7,7.263312E6,2.2658144E7,1.4300278E7,7.751344E6,1.1935242E7,2.7581912E7,5.061536E6,1.7870078E7,2.3982702E7,1.03934856E8,4.568928E7,4.541696E7,4.2853632E8,2.6412368E6,2.214504E6,6.681584E6,1.357728E6,1.047982E7,3.207666E7,6.36816E6,1.2251712E7,3.032792E6,1.04214E7,9.37203E6,5.856192E6,0E0,0E0,0E0,0E0,0E0,0E0,0E0,0E0,0E0,0E0,0E0,0E0,0E0,0E0,0E0,0E0,0E0,0E0,0E0,0E0,0E0,0E0,0E0,0E0,0E0,0E0,0E0,0E0,0E0,0E0,0E0,0E0,0E0,0E0,0E0,0E0,0E0,0E0,0E0,0E0,0E0,0E0,0E0,0E0,0E0,0E0,0E0,0E0,0E0,0E0,0E0,0E0,0E0,0E0,0E0,0E0,0E0,0E0,0E0,0E0,0E0,0E0,0E0,0E0],"parents":[2147483647,0,0,1,1,2,2,3,3,4,4,5,5,6,6,7,7,8,8,9,9,10,10,11,11,12,12,13,13,14,14,15,15,16,16,17,17,18,18,19,19,20,20,21,21,22,22,23,23,24,24,25,25,26,26,27,27,28,28,29,29,30,30,31,31,32,32,33,33,34,34,35,35,36,36,37,37,38,38,39,39,40,40,41,41,42,42,43,43,44,44,45,45,46,46,47,47,48,48,49,49,50,50,51,51,52,52,53,53,54,54,55,55,56,56,57,57,58,58,59,59,60,60,61,61,62,62],"right_children":[2,4,6,8,10,12,14,16,18,20,22,24,26,28,30,32,34,36,38,40,42,44,46,48,50,52,54,56,58,60,62,64,66,68,70,72,74,76,78,80,82,84,86,88,90,92,94,96,98,100,102,104,106,108,110,112,114,116,118,120,122,124,126,-1,-1,-1,-1,-1,-1,-1,-1,-1,-1,-1,-1,-1,-1,-1,-1,-1,-1,-1,-1,-1,-1,-1,-1,-1,-1,-1,-1,-1,-1,-1,-1,-1,-1,-1,-1,-1,-1,-1,-1,-1,-1,-1,-1,-1,-1,-1,-1,-1,-1,-1,-1,-1,-1,-1,-1,-1,-1,-1,-1,-1,-1,-1,-1],"split_conditions":[1.59E2,1.3E1,2.57E2,1.2E2,1.9E1,2.51E2,1.1E1,1.1E1,1.3E2,1.23E2,1.2E2,2.7E1,2.019E3,2.66E2,1.9E1,3.1E1,3.5E1,8E0,6E0,8.4E1,1.3E1,2.1E1,9E0,1.1E1,1.2E1,9E0,1.7E1,2.1E1,4E0,4E1,3.9E1,1.9E1,7.7E1,2.2E1,8E1,2.019E3,3E0,1.45E2,1.8E1,1.4E1,1.2E2,1.57E2,1.5E1,4.8E1,2.2E1,2.019E3,2.8E1,2.019E3,1.7E1,9E0,2.019E3,1.3E1,1.1E1,1E1,2.3E1,8E0,6E0,2.019E3,2.4E1,1.8E1,1.2E1,5E0,3.55E2,-5.466363E0,-6.242133E0,-4.2377124E0,-5.6796374E0,-4.5283284E0,-5.987275E0,-1.3386121E0,-4.0503087E0,-1.7404574E0,4.2067513E0,-5.5627103E0,-3.405909E-1,-4.267102E0,3.2296222E-1,-4.1873255E0,-5.9101777E0,-3.7472406E-1,1.5879285E0,-5.526334E-1,2.3607533E0,-3.967934E0,-5.046955E-1,2.870085E0,-2.2856598E0,-9.0946096E-1,-3.2202692E0,-3.6241097E0,-4.506141E0,-3.6661547E-1,3.3911886E0,-2.8513901E0,1.1240139E0,4.053531E0,-3.5182676E0,3.3427658E0,5.7123938E0,7.379517E0,5.530877E0,7.6393833E0,3.0254083E0,1.4426397E0,-1.2567372E0,-5.635407E0,-4.046705E0,8.369149E0,3.757762E0,7.5108023E0,4.8545594E0,-1.4748383E0,-4.19223E0,6.003151E0,-6.0494456E0,-5.748759E0,2.2868055E-1,-4.104923E0,-5.587579E0,-2.8838842E0,-4.3312793E0,-3.1191387E0,-1.3858823E0,-1.4279923E-1,-3.6328697E0,-4.8707314E0,-3.1504247E0],"split_indices":[6,0,6,6,0,6,0,0,6,6,6,7,4,6,0,6,6,0,0,6,2,0,2,2,2,2,0,2,0,7,7,2,6,6,6,4,5,6,2,0,6,6,2,6,0,4,2,4,0,3,4,0,2,2,0,0,5,4,2,2,0,5,6,0,0,0,0,0,0,0,0,0,0,0,0,0,0,0,0,0,0,0,0,0,0,0,0,0,0,0,0,0,0,0,0,0,0,0,0,0,0,0,0,0,0,0,0,0,0,0,0,0,0,0,0,0,0,0,0,0,0,0,0,0,0,0,0],"split_type":[0,0,0,0,0,0,0,0,0,0,0,0,0,0,0,0,0,0,0,0,0,0,0,0,0,0,0,0,0,0,0,0,0,0,0,0,0,0,0,0,0,0,0,0,0,0,0,0,0,0,0,0,0,0,0,0,0,0,0,0,0,0,0,0,0,0,0,0,0,0,0,0,0,0,0,0,0,0,0,0,0,0,0,0,0,0,0,0,0,0,0,0,0,0,0,0,0,0,0,0,0,0,0,0,0,0,0,0,0,0,0,0,0,0,0,0,0,0,0,0,0,0,0,0,0,0,0],"sum_hessian":[5.9012E4,2.6736E4,3.2276E4,1.2444E4,1.4292E4,2.1195E4,1.1081E4,9.392E3,3.052E3,7.854E3,6.438E3,1.9993E4,1.202E3,4.834E3,6.247E3,7.47E3,1.922E3,9.54E2,2.098E3,6.475E3,1.379E3,5.102E3,1.336E3,4.593E3,1.54E4,5.53E2,6.49E2,7.88E2,4.046E3,3.721E3,2.526E3,2.037E3,5.433E3,5.33E2,1.389E3,6.59E2,2.95E2,1.082E3,1.016E3,4.294E3,2.181E3,6.01E2,7.78E2,2.155E3,2.947E3,5.95E2,7.41E2,7.59E2,3.834E3,6.764E3,8.636E3,1.44E2,4.09E2,4.39E2,2.1E2,6.9E2,9.8E1,1.29E3,2.756E3,7.43E2,2.978E3,3.86E2,2.14E3,1.423E3,6.14E2,3.417E3,2.016E3,4.1E2,1.23E2,7.94E2,5.95E2,1.99E2,4.6E2,1.18E2,1.77E2,4.9E2,5.92E2,5.46E2,4.7E2,7.03E2,3.591E3,1.998E3,1.83E2,5.27E2,7.4E1,4.7E1,7.31E2,8.61E2,1.294E3,1.039E3,1.908E3,1.82E2,4.13E2,5.29E2,2.12E2,4.62E2,2.97E2,2.656E3,1.178E3,4.918E3,1.846E3,3.197E3,5.439E3,7.8E1,6.6E1,1.53E2,2.56E2,3.4E1,4.05E2,1.8E2,3E1,4.9E2,2E2,6.6E1,3.2E1,1.272E3,1.8E1,1.96E3,7.96E2,2.12E2,5.31E2,4.01E2,2.577E3,2.81E2,1.05E2,1.911E3,2.29E2],"tree_param":{"num_deleted":"0","num_feature":"8","num_nodes":"127","size_leaf_vector":"1"}},{"base_weights":[-5.4246704E-3,-2.4406181E2,2.0216132E2,-3.9579956E2,-1.119258E2,4.9182507E2,-3.5188263E2,-4.600129E2,-1.9810812E2,1.3881775E1,-2.6538232E2,5.142101E2,1.1937451E2,-4.3370178E2,-2.8851074E2,-5.0819647E2,-3.445647E2,9.004321E1,-3.2911642E2,7.291584E1,-2.631606E2,-3.3612326E2,4.8169355E0,3.5438895E2,5.618501E2,-3.3563226E2,5.0699664E2,-1.7118118E2,-4.8477545E2,-2.0601482E2,-4.0990424E2,-4.9026855E2,-5.957834E2,-5.133E2,-2.7813596E2,2.386869E2,-2.4169626E2,-1.4675726E2,-4.6964767E2,1.2539336E2,-3.0413136E1,-3.507702E2,-1.9511935E2,-2.2749086E2,-4.1545682E2,2.2206766E2,-1.6969284E2,-2.9756277E2,3.7314114E2,6.570397E2,4.4536826E2,2.032505E1,-4.60701E2,4.092062E2,7.0851697E2,-2.244823E2,2.0257893E2,-5.6086304E2,-4.489706E2,-3.8835953E2,-1.604054E2,-1.0882113E2,-4.6413556E2,-5.491467E0,-4.420291E0,-4.5967875E0,-6.1585283E0,-5.593061E0,-4.2613063E0,-1.7132596E0,-4.2831593E0,-1.7231396E0,4.1647754E0,-5.507551E0,-3.3720428E-1,-4.002971E0,6.262971E-1,-3.6222327E0,-5.536798E0,-3.7098244E-1,1.5720536E0,-5.4711E-1,2.3372736E0,-3.9283295E0,-4.997158E-1,2.8419824E0,-2.2628345E0,-9.0037674E-1,-3.188091E0,-3.6599693E0,-4.5129995E0,-3.6296913E-1,3.357359E0,-2.8229299E0,1.1128265E0,-4.9375043E0,1.0629514E0,2.9221435E0,4.981019E0,4.7295966E0,6.818886E0,7.407158E0,2.6417859E0,1.4283961E0,-1.2443577E0,-5.1722913E0,-3.5821054E0,1.2418349E0,4.627938E0,7.4361095E0,4.8075795E0,-1.4601197E0,-4.150517E0,5.9440155E0,-5.9907846E0,-5.6913166E0,2.2651392E-1,-4.0638943E0,-5.531773E0,-3.510462E0,-5.033243E0,-3.0880249E0,-1.372029E0,-1.4137608E-1,-3.5968838E0,-4.8220496E0,-3.1190572E0],"categories":[],"categories_nodes":[],"categories_segments":[],"categories_sizes":[],"default_left":[0,0,0,0,0,0,0,0,0,0,0,0,0,0,0,0,0,0,0,0,0,0,0,0,0,0,0,0,0,0,0,0,0,0,0,0,0,0,0,0,0,0,0,0,0,0,0,0,0,0,0,0,0,0,0,0,0,0,0,0,0,0,0,0,0,0,0,0,0,0,0,0,0,0,0,0,0,0,0,0,0,0,0,0,0,0,0,0,0,0,0,0,0,0,0,0,0,0,0,0,0,0,0,0,0,0,0,0,0,0,0,0,0,0,0,0,0,0,0,0,0,0,0,0,0,0,0],"id":5,"left_children":[1,3,5,7,9,11,13,15,17,19,21,23,25,27,29,31,33,35,37,39,41,43,45,47,49,51,53,55,57,59,61,63,65,67,69,71,73,75,77,79,81,83,85,87,89,91,93,95,97,99,101,103,105,107,109,111,113,115,117,119,121,123,125,-1,-1,-1,-1,-1,-1,-1,-1,-1,-1,-1,-1,-1,-1,-1,-1,-1,-1,-1,-1,-1,-1,-1,-1,-1,-1,-1,-1,-1,-1,-1,-1,-1,-1,-1,-1,-1,-1,-1,-1,-1,-1,-1,-1,-1,-1,-1,-1,-1,-1,-1,-1,-1,-1,-1,-1,-1,-1,-1,-1,-1,-1,-1,-1],"loss_changes":[2.9117558E9,5.3603315E8,5.180194E9,1.5789082E8,2.7594422E8,1.7665638E8,5.7335424E7,5.207552E7,1.1528106E8,1.28487224E8,1.2307763E8,1.520338E8,2.123441E8,6.474413E7,6.248595E7,1.011072E7,3.089456E7,4.7149676E7,5.372248E7,3.5119588E7,8.15784E6,4.3884096E7,5.072653E7,5.62752E7,1.7047091E8,2.467296E7,1.2519472E7,1.5763802E7,1.077344E7,3.089224E7,4.1210656E7,1.5392768E7,2.778976E6,2.893728E6,3.1831632E7,4.8299364E7,1.9007352E7,4.8600536E7,1.049656E7,2.220748E7,1.4016977E7,7.597128E6,1.1700624E7,2.7033376E7,5.061056E6,1.751542E7,2.3506726E7,1.0273403E7,4.5017664E7,3.8434816E7,3.706021E8,2.5893942E6,2.190104E6,6.662952E6,1.329016E6,1.027264E7,3.1452736E7,6.241792E6,1.200864E7,3.014856E6,1.0214872E7,9.187324E6,5.738848E6,0E0,0E0,0E0,0E0,0E0,0E0,0E0,0E0,0E0,0E0,0E0,0E0,0E0,0E0,0E0,0E0,0E0,0E0,0E0,0E0,0E0,0E0,0E0,0E0,0E0,0E0,0E0,0E0,0E0,0E0,0E0,0E0,0E0,0E0,0E0,0E0,0E0,0E0,0E0,0E0,0E0,0E0,0E0,0E0,0E0,0E0,0E0,0E0,0E0,0E0,0E0,0E0,0E0,0E0,0E0,0E0,0E0,0E0,0E0,0E0,0E0,0E0,0E0,0E0],"parents":[2147483647,0,0,1,1,2,2,3,3,4,4,5,5,6,6,7,7,8,8,9,9,10,10,11,11,12,12,13,13,14,14,15,15,16,16,17,17,18,18,19,19,20,20,21,21,22,22,23,23,24,24,25,25,26,26,27,27,28,28,29,29,30,30,31,31,32,32,33,33,34,34,35,35,36,36,37,37,38,38,39,39,40,40,41,41,42,42,43,43,44,44,45,45,46,46,47,47,48,48,49,49,50,50,51,51,52,52,53,53,54,54,55,55,56,56,57,57,58,58,59,59,60,60,61,61,62,62],"right_children":[2,4,6,8,10,12,14,16,18,20,22,24,26,28,30,32,34,36,38,40,42,44,46,48,50,52,54,56,58,60,62,64,66,68,70,72,74,76,78,80,82,84,86,88,90,92,94,96,98,100,102,104,106,108,110,112,114,116,118,120,122,124,126,-1,-1,-1,-1,-1,-1,-1,-1,-1,-1,-1,-1,-1,-1,-1,-1,-1,-1,-1,-1,-1,-1,-1,-1,-1,-1,-1,-1,-1,-1,-1,-1,-1,-1,-1,-1,-1,-1,-1,-1,-1,-1,-1,-1,-1,-1,-1,-1,-1,-1,-1,-1,-1,-1,-1,-1,-1,-1,-1,-1,-1,-1,-1,-1],"split_conditions":[1.59E2,1.3E1,2.57E2,1.2E2,1.9E1,2.51E2,1.1E1,1E1,1.3E2,1.23E2,1.2E2,2.7E1,2.019E3,2.66E2,1.9E1,4E0,3.5E1,8E0,5E0,8.4E1,1.3E1,2.1E1,9E0,2E0,1.6E1,9E0,1.7E1,2.1E1,4E0,4E1,3.9E1,4.2E1,1E0,1.2E1,8E1,2.019E3,3E0,1.45E2,1.4E1,1.4E1,1.2E2,1.57E2,1.5E1,4.8E1,1.4E1,2.019E3,2.8E1,1.7E1,1.5E1,3E0,2.019E3,1.3E1,1.3E1,3E0,2.3E1,8E0,6E0,2.019E3,2.4E1,2.019E3,1.2E1,5E0,3.55E2,-5.491467E0,-4.420291E0,-4.5967875E0,-6.1585283E0,-5.593061E0,-4.2613063E0,-1.7132596E0,-4.2831593E0,-1.7231396E0,4.1647754E0,-5.507551E0,-3.3720428E-1,-4.002971E0,6.262971E-1,-3.6222327E0,-5.536798E0,-3.7098244E-1,1.5720536E0,-5.4711E-1,2.3372736E0,-3.9283295E0,-4.997158E-1,2.8419824E0,-2.2628345E0,-9.0037674E-1,-3.188091E0,-3.6599693E0,-4.5129995E0,-3.6296913E-1,3.357359E0,-2.8229299E0,1.1128265E0,-4.9375043E0,1.0629514E0,2.9221435E0,4.981019E0,4.7295966E0,6.818886E0,7.407158E0,2.6417859E0,1.4283961E0,-1.2443577E0,-5.1722913E0,-3.5821054E0,1.2418349E0,4.627938E0,7.4361095E0,4.8075795E0,-1.4601197E0,-4.150517E0,5.9440155E0,-5.9907846E0,-5.6913166E0,2.2651392E-1,-4.0638943E0,-5.531773E0,-3.510462E0,-5.033243E0,-3.0880249E0,-1.372029E0,-1.4137608E-1,-3.5968838E0,-4.8220496E0,-3.1190572E0],"split_indices":[6,0,6,6,0,6,0,0,6,6,6,7,4,6,0,3,6,0,0,6,2,0,2,2,2,2,0,2,0,7,7,6,0,0,6,4,5,6,2,0,6,6,2,6,2,4,2,0,0,0,4,0,0,0,0,0,5,4,2,4,0,5,6,0,0,0,0,0,0,0,0,0,0,0,0,0,0,0,0,0,0,0,0,0,0,0,0,0,0,0,0,0,0,0,0,0,0,0,0,0,0,0,0,0,0,0,0,0,0,0,0,0,0,0,0,0,0,0,0,0,0,0,0,0,0,0,0],"split_type":[0,0,0,0,0,0,0,0,0,0,0,0,0,0,0,0,0,0,0,0,0,0,0,0,0,0,0,0,0,0,0,0,0,0,0,0,0,0,0,0,0,0,0,0,0,0,0,0,0,0,0,0,0,0,0,0,0,0,0,0,0,0,0,0,0,0,0,0,0,0,0,0,0,0,0,0,0,0,0,0,0,0,0,0,0,0,0,0,0,0,0,0,0,0,0,0,0,0,0,0,0,0,0,0,0,0,0,0,0,0,0,0,0,0,0,0,0,0,0,0,0,0,0,0,0,0,0],"sum_hessian":[5.9012E4,2.6736E4,3.2276E4,1.2444E4,1.4292E4,2.1195E4,1.1081E4,9.392E3,3.052E3,7.854E3,6.438E3,1.9993E4,1.202E3,4.834E3,6.247E3,6.624E3,2.768E3,9.54E2,2.098E3,6.475E3,1.379E3,5.102E3,1.336E3,4.593E3,1.54E4,5.53E2,6.49E2,7.88E2,4.046E3,3.721E3,2.526E3,5.504E3,1.12E3,7.8E2,1.988E3,6.59E2,2.95E2,9.14E2,1.184E3,4.294E3,2.181E3,6.01E2,7.78E2,2.155E3,2.947E3,5.95E2,7.41E2,1.28E2,4.465E3,8.472E3,6.928E3,1.44E2,4.09E2,4.39E2,2.1E2,6.9E2,9.8E1,1.29E3,2.756E3,7.43E2,2.978E3,3.86E2,2.14E3,2.474E3,3.03E3,1.47E2,9.73E2,5.07E2,2.73E2,1.163E3,8.25E2,1.99E2,4.6E2,1.18E2,1.77E2,4.13E2,5.01E2,5.22E2,6.62E2,7.03E2,3.591E3,1.998E3,1.83E2,5.27E2,7.4E1,4.7E1,7.31E2,8.61E2,1.294E3,1.243E3,1.704E3,1.82E2,4.13E2,5.29E2,2.12E2,8.6E1,4.2E1,2.712E3,1.753E3,1.01E3,7.462E3,2.633E3,4.295E3,7.8E1,6.6E1,2.61E2,1.48E2,7E1,3.69E2,1.8E2,3E1,4.9E2,2E2,6.6E1,3.2E1,1.272E3,1.8E1,1.96E3,7.96E2,5.64E2,1.79E2,4.01E2,2.577E3,2.81E2,1.05E2,1.911E3,2.29E2],"tree_param":{"num_deleted":"0","num_feature":"8","num_nodes":"127","size_leaf_vector":"1"}},{"base_weights":[-6.637694E-3,-2.4162361E2,2.0013937E2,-3.9184576E2,-1.10807365E2,4.8690845E2,-3.4836792E2,-4.554167E2,-1.9613226E2,1.3742835E1,-2.627302E2,5.0906924E2,1.1818871E2,-4.2936905E2,-2.856296E2,-4.9285858E2,-3.0971524E2,8.913921E1,-3.2583124E2,7.218713E1,-2.605318E2,-3.327644E2,4.769725E0,3.5084595E2,5.5623303E2,-3.322914E2,5.0195453E2,-1.6947653E2,-4.799314E2,-2.0395819E2,-4.0580984E2,-5.591172E2,-4.6791785E2,-4.778014E2,-2.4491833E2,2.3630373E2,-2.3929903E2,-1.7205128E2,-4.892706E2,1.2413967E2,-3.0108177E1,-3.4726987E2,-1.9316743E2,-2.2521782E2,-4.11305E2,2.19852E2,-1.6799821E2,-2.946172E2,3.6941153E2,6.741482E2,4.6381058E2,2.0123077E1,-4.5611533E2,4.051275E2,7.014898E2,-2.2224559E2,2.0055266E2,-5.552586E2,-4.4448438E2,-3.8448743E2,-1.5880286E2,-1.0774259E2,-4.5949792E2,-5.3567467E0,-6.1248803E0,-4.1517715E0,-5.570599E0,-4.4342628E0,-5.8788495E0,-1.3081316E0,-3.9671142E0,-1.7059944E0,4.123218E0,-5.452938E0,-3.3385104E-1,-4.182749E0,3.2110342E-1,-4.1060123E0,-5.795951E0,-3.67278E-1,1.556337E0,-5.416416E-1,2.314028E0,-3.8891203E0,-4.9478546E-1,2.8141546E0,-2.2402372E0,-8.913832E-1,-3.1562347E0,-3.6852858E0,-4.522412E0,-3.593592E-1,3.3238666E0,-3.4171288E0,1.1396406E-1,-4.8886967E0,1.0525693E0,2.8929334E0,4.931237E0,5.7848125E0,7.446617E0,7.490361E0,2.9605043E0,1.4142929E0,-1.2320995E0,-5.5320587E0,-3.9616177E0,8.242891E0,3.6799502E0,7.3621593E0,4.761055E0,-1.445548E0,-4.109218E0,5.8854623E0,-5.932692E0,-5.6344476E0,2.2436813E-1,-4.023276E0,-5.4765244E0,-2.8160229E0,-4.249574E0,-3.0572217E0,-1.3583142E0,-1.3996752E-1,-3.5612545E0,-4.7738547E0,-3.088002E0],"categories":[],"categories_nodes":[],"categories_segments":[],"categories_sizes":[],"default_left":[0,0,0,0,0,0,0,0,0,0,0,0,0,0,0,0,0,0,0,0,0,0,0,0,0,0,0,0,0,0,0,0,0,0,0,0,0,0,0,0,0,0,0,0,0,0,0,0,0,0,0,0,0,0,0,0,0,0,0,0,0,0,0,0,0,0,0,0,0,0,0,0,0,0,0,0,0,0,0,0,0,0,0,0,0,0,0,0,0,0,0,0,0,0,0,0,0,0,0,0,0,0,0,0,0,0,0,0,0,0,0,0,0,0,0,0,0,0,0,0,0,0,0,0,0,0,0],"id":6,"left_children":[1,3,5,7,9,11,13,15,17,19,21,23,25,27,29,31,33,35,37,39,41,43,45,47,49,51,53,55,57,59,61,63,65,67,69,71,73,75,77,79,81,83,85,87,89,91,93,95,97,99,101,103,105,107,109,111,113,115,117,119,121,123,125,-1,-1,-1,-1,-1,-1,-1,-1,-1,-1,-1,-1,-1,-1,-1,-1,-1,-1,-1,-1,-1,-1,-1,-1,-1,-1,-1,-1,-1,-1,-1,-1,-1,-1,-1,-1,-1,-1,-1,-1,-1,-1,-1,-1,-1,-1,-1,-1,-1,-1,-1,-1,-1,-1,-1,-1,-1,-1,-1,-1,-1,-1,-1,-1],"loss_changes":[2.8538388E9,5.253788E8,5.0771784E9,1.547474E8,2.7045603E8,1.7313485E8,5.6194816E7,5.108928E7,1.1298825E8,1.2593278E8,1.2063075E8,1.4900787E8,2.081401E8,6.345427E7,6.12432E7,1.2084608E7,2.0827248E7,4.6215944E7,5.2671456E7,3.4420452E7,7.996344E6,4.3011264E7,4.971895E7,5.5160576E7,1.6752794E8,2.4184264E7,1.2274064E7,1.5450658E7,1.0559232E7,3.0280144E7,4.0389216E7,2.221696E6,2.5316224E7,1.76004E6,2.4023432E7,4.734106E7,1.8632338E7,5.44552E7,6.988576E6,2.1765756E7,1.3739286E7,7.445968E6,1.147062E7,2.6495752E7,4.995616E6,1.7167804E7,2.3127196E7,1.0071733E7,4.412256E7,4.520448E7,4.1305408E8,2.5385678E6,2.167424E6,6.545048E6,1.300928E6,1.006956E7,3.0840948E7,6.117888E6,1.1770496E7,2.978176E6,1.001244E7,9.006256E6,5.623904E6,0E0,0E0,0E0,0E0,0E0,0E0,0E0,0E0,0E0,0E0,0E0,0E0,0E0,0E0,0E0,0E0,0E0,0E0,0E0,0E0,0E0,0E0,0E0,0E0,0E0,0E0,0E0,0E0,0E0,0E0,0E0,0E0,0E0,0E0,0E0,0E0,0E0,0E0,0E0,0E0,0E0,0E0,0E0,0E0,0E0,0E0,0E0,0E0,0E0,0E0,0E0,0E0,0E0,0E0,0E0,0E0,0E0,0E0,0E0,0E0,0E0,0E0,0E0,0E0],"parents":[2147483647,0,0,1,1,2,2,3,3,4,4,5,5,6,6,7,7,8,8,9,9,10,10,11,11,12,12,13,13,14,14,15,15,16,16,17,17,18,18,19,19,20,20,21,21,22,22,23,23,24,24,25,25,26,26,27,27,28,28,29,29,30,30,31,31,32,32,33,33,34,34,35,35,36,36,37,37,38,38,39,39,40,40,41,41,42,42,43,43,44,44,45,45,46,46,47,47,48,48,49,49,50,50,51,51,52,52,53,53,54,54,55,55,56,56,57,57,58,58,59,59,60,60,61,61,62,62],"right_children":[2,4,6,8,10,12,14,16,18,20,22,24,26,28,30,32,34,36,38,40,42,44,46,48,50,52,54,56,58,60,62,64,66,68,70,72,74,76,78,80,82,84,86,88,90,92,94,96,98,100,102,104,106,108,110,112,114,116,118,120,122,124,126,-1,-1,-1,-1,-1,-1,-1,-1,-1,-1,-1,-1,-1,-1,-1,-1,-1,-1,-1,-1,-1,-1,-1,-1,-1,-1,-1,-1,-1,-1,-1,-1,-1,-1,-1,-1,-1,-1,-1,-1,-1,-1,-1,-1,-1,-1,-1,-1,-1,-1,-1,-1,-1,-1,-1,-1,-1,-1,-1,-1,-1,-1,-1,-1],"split_conditions":[1.59E2,1.3E1,2.57E2,1.2E2,1.9E1,2.51E2,1.1E1,1.1E1,1.3E2,1.23E2,1.2E2,2.7E1,2.019E3,2.66E2,1.9E1,3.1E1,3.5E1,8E0,6E0,8.4E1,1.3E1,2.1E1,9E0,2E0,1.2E1,9E0,1.7E1,2.1E1,4E0,4E1,3.9E1,1.9E1,7.7E1,2.2E1,8E1,2.019E3,3E0,1.45E2,1.8E1,1.4E1,1.2E2,1.57E2,1.5E1,4.8E1,5.6E1,2.019E3,2.3E1,1.7E1,1.5E1,5E0,2.019E3,1.3E1,1.1E1,1E1,2.3E1,8E0,6E0,2.019E3,2.4E1,1.8E1,1.2E1,5E0,3.55E2,-5.3567467E0,-6.1248803E0,-4.1517715E0,-5.570599E0,-4.4342628E0,-5.8788495E0,-1.3081316E0,-3.9671142E0,-1.7059944E0,4.123218E0,-5.452938E0,-3.3385104E-1,-4.182749E0,3.2110342E-1,-4.1060123E0,-5.795951E0,-3.67278E-1,1.556337E0,-5.416416E-1,2.314028E0,-3.8891203E0,-4.9478546E-1,2.8141546E0,-2.2402372E0,-8.913832E-1,-3.1562347E0,-3.6852858E0,-4.522412E0,-3.593592E-1,3.3238666E0,-3.4171288E0,1.1396406E-1,-4.8886967E0,1.0525693E0,2.8929334E0,4.931237E0,5.7848125E0,7.446617E0,7.490361E0,2.9605043E0,1.4142929E0,-1.2320995E0,-5.5320587E0,-3.9616177E0,8.242891E0,3.6799502E0,7.3621593E0,4.761055E0,-1.445548E0,-4.109218E0,5.8854623E0,-5.932692E0,-5.6344476E0,2.2436813E-1,-4.023276E0,-5.4765244E0,-2.8160229E0,-4.249574E0,-3.0572217E0,-1.3583142E0,-1.3996752E-1,-3.5612545E0,-4.7738547E0,-3.088002E0],"split_indices":[6,0,6,6,0,6,0,0,6,6,6,7,4,6,0,6,6,0,0,6,2,0,2,2,2,2,0,2,0,7,7,2,6,6,6,4,5,6,2,0,6,6,2,6,6,4,2,0,0,2,4,0,2,2,0,0,5,4,2,2,0,5,6,0,0,0,0,0,0,0,0,0,0,0,0,0,0,0,0,0,0,0,0,0,0,0,0,0,0,0,0,0,0,0,0,0,0,0,0,0,0,0,0,0,0,0,0,0,0,0,0,0,0,0,0,0,0,0,0,0,0,0,0,0,0,0,0],"split_type":[0,0,0,0,0,0,0,0,0,0,0,0,0,0,0,0,0,0,0,0,0,0,0,0,0,0,0,0,0,0,0,0,0,0,0,0,0,0,0,0,0,0,0,0,0,0,0,0,0,0,0,0,0,0,0,0,0,0,0,0,0,0,0,0,0,0,0,0,0,0,0,0,0,0,0,0,0,0,0,0,0,0,0,0,0,0,0,0,0,0,0,0,0,0,0,0,0,0,0,0,0,0,0,0,0,0,0,0,0,0,0,0,0,0,0,0,0,0,0,0,0,0,0,0,0,0,0],"sum_hessian":[5.9012E4,2.6736E4,3.2276E4,1.2444E4,1.4292E4,2.1195E4,1.1081E4,9.392E3,3.052E3,7.854E3,6.438E3,1.9993E4,1.202E3,4.834E3,6.247E3,7.47E3,1.922E3,9.54E2,2.098E3,6.475E3,1.379E3,5.102E3,1.336E3,4.593E3,1.54E4,5.53E2,6.49E2,7.88E2,4.046E3,3.721E3,2.526E3,2.037E3,5.433E3,5.33E2,1.389E3,6.59E2,2.95E2,1.082E3,1.016E3,4.294E3,2.181E3,6.01E2,7.78E2,2.155E3,2.947E3,5.95E2,7.41E2,1.28E2,4.465E3,6.764E3,8.636E3,1.44E2,4.09E2,4.39E2,2.1E2,6.9E2,9.8E1,1.29E3,2.756E3,7.43E2,2.978E3,3.86E2,2.14E3,1.423E3,6.14E2,3.417E3,2.016E3,4.1E2,1.23E2,7.94E2,5.95E2,1.99E2,4.6E2,1.18E2,1.77E2,4.9E2,5.92E2,5.46E2,4.7E2,7.03E2,3.591E3,1.998E3,1.83E2,5.27E2,7.4E1,4.7E1,7.31E2,8.61E2,1.294E3,1.446E3,1.501E3,1.82E2,4.13E2,3.76E2,3.65E2,8.6E1,4.2E1,2.712E3,1.753E3,2.874E3,3.89E3,3.197E3,5.439E3,7.8E1,6.6E1,1.53E2,2.56E2,3.4E1,4.05E2,1.8E2,3E1,4.9E2,2E2,6.6E1,3.2E1,1.272E3,1.8E1,1.96E3,7.96E2,2.12E2,5.31E2,4.01E2,2.577E3,2.81E2,1.05E2,1.911E3,2.29E2],"tree_param":{"num_deleted":"0","num_feature":"8","num_nodes":"127","size_leaf_vector":"1"}},{"base_weights":[-7.728278E-3,-2.3920988E2,1.9813795E2,-3.8793164E2,-1.0970023E2,4.8204138E2,-3.4488815E2,-4.5086642E2,-1.9417654E2,1.3605291E1,-2.6010483E2,5.0397995E2,1.17019066E2,-4.250796E2,-2.8277698E2,-4.9819522E2,-3.3746658E2,8.8244286E1,-3.2257947E2,7.1465706E1,-2.5792926E2,-3.2943918E2,4.72178E0,3.4733835E2,5.5067224E2,-3.289853E2,4.96972E2,-1.6778886E2,-4.7513577E2,-2.0192168E2,-4.0175632E2,-4.8057715E2,-5.842695E2,-5.0320023E2,-2.7222E2,2.6027054E2,-1.880819E2,-1.4358124E2,-4.605211E2,1.2289855E2,-2.9806297E1,-3.4380444E2,-1.9123503E2,-2.2296753E2,-4.0719473E2,2.1765848E2,-1.6632268E2,1.0279234E2,3.957106E2,6.4419135E2,4.3623462E2,1.9923103E1,-4.5157733E2,4.0110333E2,6.9453235E2,-2.2003117E2,1.9854668E2,-5.497102E2,-4.40043E2,-3.8065204E2,-1.572163E2,-1.06674736E2,-4.5490662E2,-5.384553E0,-4.3315744E0,-4.4958005E0,-6.0413575E0,-5.486223E0,-4.1715045E0,-1.6738133E0,-4.196292E0,-1.4185206E0,4.4043803E0,-4.8684216E0,1.3757206E-1,-3.9213116E0,6.168421E-1,-5.22057E0,-3.186162E0,-3.636107E-1,1.540778E0,-5.3622806E-1,2.2910135E0,-3.850303E0,-4.8990333E-1,2.7865994E0,-2.2178655E0,-8.8247997E-1,-3.1246965E0,-3.5051644E0,-4.3785906E0,-3.557851E-1,3.2907083E0,-2.7708406E0,1.100616E0,3.9739282E0,-3.5527081E0,3.2460098E0,5.5562797E0,4.6199245E0,6.6878715E0,7.2582397E0,2.585776E0,1.4003288E0,-1.2199624E0,-5.074467E0,-3.5030642E0,1.1933106E0,4.5408907E0,7.491323E0,5.4798923E0,-1.431122E0,-4.068331E0,5.8274865E0,-5.8751626E0,-5.578147E0,2.2224256E-1,-3.9830642E0,-5.421828E0,-3.436881E0,-4.9456296E0,-3.026725E0,-1.3447361E0,-1.3857293E-1,-3.5259776E0,-4.726141E0,-3.057256E0],"categories":[],"categories_nodes":[],"categories_segments":[],"categories_sizes":[],"default_left":[0,0,0,0,0,0,0,0,0,0,0,0,0,0,0,0,0,0,0,0,0,0,0,0,0,0,0,0,0,0,0,0,0,0,0,0,0,0,0,0,0,0,0,0,0,0,0,0,0,0,0,0,0,0,0,0,0,0,0,0,0,0,0,0,0,0,0,0,0,0,0,0,0,0,0,0,0,0,0,0,0,0,0,0,0,0,0,0,0,0,0,0,0,0,0,0,0,0,0,0,0,0,0,0,0,0,0,0,0,0,0,0,0,0,0,0,0,0,0,0,0,0,0,0,0,0,0],"id":7,"left_children":[1,3,5,7,9,11,13,15,17,19,21,23,25,27,29,31,33,35,37,39,41,43,45,47,49,51,53,55,57,59,61,63,65,67,69,71,73,75,77,79,81,83,85,87,89,91,93,95,97,99,101,103,105,107,109,111,113,115,117,119,121,123,125,-1,-1,-1,-1,-1,-1,-1,-1,-1,-1,-1,-1,-1,-1,-1,-1,-1,-1,-1,-1,-1,-1,-1,-1,-1,-1,-1,-1,-1,-1,-1,-1,-1,-1,-1,-1,-1,-1,-1,-1,-1,-1,-1,-1,-1,-1,-1,-1,-1,-1,-1,-1,-1,-1,-1,-1,-1,-1,-1,-1,-1,-1,-1,-1],"loss_changes":[2.797079E9,5.149362E8,4.9762135E9,1.516658E8,2.6507752E8,1.6968038E8,5.5076864E7,5.0244864E7,1.1074142E8,1.2342914E8,1.1823174E8,1.460434E8,2.0402469E8,6.2190144E7,6.002528E7,9.76576E6,2.980576E7,4.544522E7,5.176091E7,3.3735256E7,7.83804E6,4.215571E7,4.873194E7,5.430285E7,1.6454195E8,2.3705452E7,1.203232E7,1.5143736E7,1.0349248E7,2.9679728E7,3.958413E7,1.4875648E7,2.727936E6,2.823728E6,3.0668128E7,4.2735184E7,2.2137348E7,4.6706308E7,1.0181392E7,2.1332832E7,1.34671E7,7.297824E6,1.1245136E7,2.5968792E7,4.970144E6,1.682709E7,2.2745122E7,1.02699864E8,4.3430016E7,3.7661696E7,3.5629248E8,2.488739E6,2.142E6,6.514976E6,1.277752E6,9.87049E6,3.0241062E7,5.99648E6,1.1537056E7,2.962696E6,9.814024E6,8.828756E6,5.5112E6,0E0,0E0,0E0,0E0,0E0,0E0,0E0,0E0,0E0,0E0,0E0,0E0,0E0,0E0,0E0,0E0,0E0,0E0,0E0,0E0,0E0,0E0,0E0,0E0,0E0,0E0,0E0,0E0,0E0,0E0,0E0,0E0,0E0,0E0,0E0,0E0,0E0,0E0,0E0,0E0,0E0,0E0,0E0,0E0,0E0,0E0,0E0,0E0,0E0,0E0,0E0,0E0,0E0,0E0,0E0,0E0,0E0,0E0,0E0,0E0,0E0,0E0,0E0,0E0],"parents":[2147483647,0,0,1,1,2,2,3,3,4,4,5,5,6,6,7,7,8,8,9,9,10,10,11,11,12,12,13,13,14,14,15,15,16,16,17,17,18,18,19,19,20,20,21,21,22,22,23,23,24,24,25,25,26,26,27,27,28,28,29,29,30,30,31,31,32,32,33,33,34,34,35,35,36,36,37,37,38,38,39,39,40,40,41,41,42,42,43,43,44,44,45,45,46,46,47,47,48,48,49,49,50,50,51,51,52,52,53,53,54,54,55,55,56,56,57,57,58,58,59,59,60,60,61,61,62,62],"right_children":[2,4,6,8,10,12,14,16,18,20,22,24,26,28,30,32,34,36,38,40,42,44,46,48,50,52,54,56,58,60,62,64,66,68,70,72,74,76,78,80,82,84,86,88,90,92,94,96,98,100,102,104,106,108,110,112,114,116,118,120,122,124,126,-1,-1,-1,-1,-1,-1,-1,-1,-1,-1,-1,-1,-1,-1,-1,-1,-1,-1,-1,-1,-1,-1,-1,-1,-1,-1,-1,-1,-1,-1,-1,-1,-1,-1,-1,-1,-1,-1,-1,-1,-1,-1,-1,-1,-1,-1,-1,-1,-1,-1,-1,-1,-1,-1,-1,-1,-1,-1,-1,-1,-1,-1,-1,-1],"split_conditions":[1.59E2,1.3E1,2.57E2,1.2E2,1.9E1,2.51E2,1.1E1,1E1,1.3E2,1.23E2,1.2E2,2.7E1,2.019E3,2.66E2,1.9E1,4E0,3.5E1,7E0,5E0,8.4E1,1.3E1,2.1E1,9E0,1.1E1,1.6E1,9E0,1.7E1,2.1E1,4E0,4E1,3.9E1,4.2E1,1E0,1.2E1,8E1,2.019E3,3E0,1.45E2,1.53E2,1.4E1,1.2E2,1.57E2,1.5E1,4.8E1,2.2E1,2.019E3,2.8E1,2.019E3,1.7E1,3E0,2.019E3,1.3E1,1.3E1,3E0,2.2E1,8E0,6E0,2.019E3,2.4E1,2.019E3,1.2E1,5E0,3.55E2,-5.384553E0,-4.3315744E0,-4.4958005E0,-6.0413575E0,-5.486223E0,-4.1715045E0,-1.6738133E0,-4.196292E0,-1.4185206E0,4.4043803E0,-4.8684216E0,1.3757206E-1,-3.9213116E0,6.168421E-1,-5.22057E0,-3.186162E0,-3.636107E-1,1.540778E0,-5.3622806E-1,2.2910135E0,-3.850303E0,-4.8990333E-1,2.7865994E0,-2.2178655E0,-8.8247997E-1,-3.1246965E0,-3.5051644E0,-4.3785906E0,-3.557851E-1,3.2907083E0,-2.7708406E0,1.100616E0,3.9739282E0,-3.5527081E0,3.2460098E0,5.5562797E0,4.6199245E0,6.6878715E0,7.2582397E0,2.585776E0,1.4003288E0,-1.2199624E0,-5.074467E0,-3.5030642E0,1.1933106E0,4.5408907E0,7.491323E0,5.4798923E0,-1.431122E0,-4.068331E0,5.8274865E0,-5.8751626E0,-5.578147E0,2.2224256E-1,-3.9830642E0,-5.421828E0,-3.436881E0,-4.9456296E0,-3.026725E0,-1.3447361E0,-1.3857293E-1,-3.5259776E0,-4.726141E0,-3.057256E0],"split_indices":[6,0,6,6,0,6,0,0,6,6,6,7,4,6,0,3,6,0,0,6,2,0,2,2,2,2,0,2,0,7,7,6,0,0,6,4,5,6,6,0,6,6,2,6,0,4,2,4,0,0,4,0,0,0,0,0,5,4,2,4,0,5,6,0,0,0,0,0,0,0,0,0,0,0,0,0,0,0,0,0,0,0,0,0,0,0,0,0,0,0,0,0,0,0,0,0,0,0,0,0,0,0,0,0,0,0,0,0,0,0,0,0,0,0,0,0,0,0,0,0,0,0,0,0,0,0,0],"split_type":[0,0,0,0,0,0,0,0,0,0,0,0,0,0,0,0,0,0,0,0,0,0,0,0,0,0,0,0,0,0,0,0,0,0,0,0,0,0,0,0,0,0,0,0,0,0,0,0,0,0,0,0,0,0,0,0,0,0,0,0,0,0,0,0,0,0,0,0,0,0,0,0,0,0,0,0,0,0,0,0,0,0,0,0,0,0,0,0,0,0,0,0,0,0,0,0,0,0,0,0,0,0,0,0,0,0,0,0,0,0,0,0,0,0,0,0,0,0,0,0,0,0,0,0,0,0,0],"sum_hessian":[5.9012E4,2.6736E4,3.2276E4,1.2444E4,1.4292E4,2.1195E4,1.1081E4,9.392E3,3.052E3,7.854E3,6.438E3,1.9993E4,1.202E3,4.834E3,6.247E3,6.624E3,2.768E3,9.54E2,2.098E3,6.475E3,1.379E3,5.102E3,1.336E3,4.593E3,1.54E4,5.53E2,6.49E2,7.88E2,4.046E3,3.721E3,2.526E3,5.504E3,1.12E3,7.8E2,1.988E3,5.88E2,3.66E2,9.14E2,1.184E3,4.294E3,2.181E3,6.01E2,7.78E2,2.155E3,2.947E3,5.95E2,7.41E2,7.59E2,3.834E3,8.472E3,6.928E3,1.44E2,4.09E2,4.39E2,2.1E2,6.9E2,9.8E1,1.29E3,2.756E3,7.43E2,2.978E3,3.86E2,2.14E3,2.474E3,3.03E3,1.47E2,9.73E2,5.07E2,2.73E2,1.163E3,8.25E2,1.82E2,4.06E2,1.47E2,2.19E2,4.13E2,5.01E2,8.24E2,3.6E2,7.03E2,3.591E3,1.998E3,1.83E2,5.27E2,7.4E1,4.7E1,7.31E2,8.61E2,1.294E3,1.039E3,1.908E3,1.82E2,4.13E2,5.29E2,2.12E2,4.62E2,2.97E2,2.656E3,1.178E3,1.01E3,7.462E3,2.633E3,4.295E3,7.8E1,6.6E1,2.61E2,1.48E2,7E1,3.69E2,1.5E2,6E1,4.9E2,2E2,6.6E1,3.2E1,1.272E3,1.8E1,1.96E3,7.96E2,5.64E2,1.79E2,4.01E2,2.577E3,2.81E2,1.05E2,1.911E3,2.29E2],"tree_param":{"num_deleted":"0","num_feature":"8","num_nodes":"127","size_leaf_vector":"1"}},{"base_weights":[-8.737455E-3,-2.3682005E2,1.9615646E2,-3.8405627E2,-1.0860403E2,4.772229E2,-3.414433E2,-4.4636154E2,-1.9223918E2,1.3469141E1,-2.5750543E2,4.9894168E2,1.15857445E2,-4.20833E2,-2.799531E2,-4.8312445E2,-3.0330273E2,8.736002E1,-3.1935925E2,7.075151E1,-2.5535269E2,-3.261471E2,4.6755E0,3.4386697E2,5.451669E2,-3.257106E2,4.9203104E2,-1.6611798E2,-4.7038806E2,-1.9990588E2,-3.977433E2,-5.481384E2,-4.586523E2,-4.6823886E2,-2.3972058E2,2.576729E2,-1.8621397E2,-1.6841026E2,-4.7979028E2,-9.053253E1,1.02548065E2,-3.4037363E2,-1.8932191E2,-2.207397E2,-4.0312546E2,2.1548682E2,-1.6466171E2,-2.956439E2,3.6226218E2,6.6097064E2,4.5439954E2,1.9725119E1,-4.470825E2,3.9710532E2,6.876485E2,-2.1783879E2,1.9656071E2,-5.442173E2,-4.3564597E2,-3.7685678E2,-1.556456E2,-1.0561747E2,-4.5036118E2,-5.249294E0,-6.0098658E0,-4.067563E0,-5.4636765E0,-4.342113E0,-5.7724767E0,-1.2783498E0,-3.8856173E0,-1.404413E0,4.360445E0,-4.8200665E0,1.3620259E-1,-4.099836E0,3.1894818E-1,-4.0244093E0,-5.68602E0,-2.591629E0,-3.9153412E-1,1.6969013E0,2.4520759E-2,-3.8118732E0,-4.8506933E-1,2.7593138E0,-2.1957169E0,-8.7366515E-1,-3.0934737E0,-3.5422716E0,-4.385661E0,-3.5224676E-1,3.2578804E0,-3.3554137E0,1.1803557E-1,-4.879655E0,1.0034734E0,2.8364182E0,4.836617E0,7.107409E0,5.2806263E0,7.344283E0,2.8969612E0,1.3865029E0,-1.2079446E0,-5.4306617E0,-3.8782735E0,8.118706E0,3.6037161E0,7.2177787E0,4.6619487E0,-1.4168396E0,-4.0278497E0,5.770081E0,-5.8181915E0,-5.5224094E0,2.2013722E-1,-3.9432533E0,-5.367678E0,-2.749608E0,-4.1694508E0,-2.9965332E0,-1.3312941E0,-1.3719235E-1,-3.4910502E0,-4.6789045E0,-3.0268166E0],"categories":[],"categories_nodes":[],"categories_segments":[],"categories_sizes":[],"default_left":[0,0,0,0,0,0,0,0,0,0,0,0,0,0,0,0,0,0,0,0,0,0,0,0,0,0,0,0,0,0,0,0,0,0,0,0,0,0,0,0,0,0,0,0,0,0,0,0,0,0,0,0,0,0,0,0,0,0,0,0,0,0,0,0,0,0,0,0,0,0,0,0,0,0,0,0,0,0,0,0,0,0,0,0,0,0,0,0,0,0,0,0,0,0,0,0,0,0,0,0,0,0,0,0,0,0,0,0,0,0,0,0,0,0,0,0,0,0,0,0,0,0,0,0,0,0,0],"id":8,"left_children":[1,3,5,7,9,11,13,15,17,19,21,23,25,27,29,31,33,35,37,39,41,43,45,47,49,51,53,55,57,59,61,63,65,67,69,71,73,75,77,79,81,83,85,87,89,91,93,95,97,99,101,103,105,107,109,111,113,115,117,119,121,123,125,-1,-1,-1,-1,-1,-1,-1,-1,-1,-1,-1,-1,-1,-1,-1,-1,-1,-1,-1,-1,-1,-1,-1,-1,-1,-1,-1,-1,-1,-1,-1,-1,-1,-1,-1,-1,-1,-1,-1,-1,-1,-1,-1,-1,-1,-1,-1,-1,-1,-1,-1,-1,-1,-1,-1,-1,-1,-1,-1,-1,-1,-1,-1,-1],"loss_changes":[2.7414444E9,5.0470054E8,4.8772577E9,1.4864704E8,2.5980539E8,1.662976E8,5.3981056E7,4.925363E7,1.08539656E8,1.2097526E8,1.1588125E8,1.4313677E8,1.9998606E8,6.095123E7,5.883149E7,1.1635072E7,2.005424E7,4.4544468E7,5.0750464E7,3.3219996E7,7.68288E6,4.1317184E7,4.776398E7,5.415059E7,1.6158208E8,2.3235924E7,1.179688E7,1.4842904E7,1.0143424E7,2.9091664E7,3.879507E7,2.184256E6,2.4513792E7,1.73012E6,2.3098264E7,4.188746E7,2.1699752E7,5.241768E7,6.757472E6,9.234427E6,3.635831E7,7.152632E6,1.1024084E7,2.5452336E7,4.953504E6,1.6493134E7,2.2378468E7,9.873304E6,4.2488384E7,4.437427E7,3.981403E8,2.4398888E6,2.121272E6,6.4112E6,1.258264E6,9.675354E6,2.965284E7,5.877536E6,1.1308224E7,2.924472E6,9.619536E6,8.654753E6,5.4008E6,0E0,0E0,0E0,0E0,0E0,0E0,0E0,0E0,0E0,0E0,0E0,0E0,0E0,0E0,0E0,0E0,0E0,0E0,0E0,0E0,0E0,0E0,0E0,0E0,0E0,0E0,0E0,0E0,0E0,0E0,0E0,0E0,0E0,0E0,0E0,0E0,0E0,0E0,0E0,0E0,0E0,0E0,0E0,0E0,0E0,0E0,0E0,0E0,0E0,0E0,0E0,0E0,0E0,0E0,0E0,0E0,0E0,0E0,0E0,0E0,0E0,0E0,0E0,0E0],"parents":[2147483647,0,0,1,1,2,2,3,3,4,4,5,5,6,6,7,7,8,8,9,9,10,10,11,11,12,12,13,13,14,14,15,15,16,16,17,17,18,18,19,19,20,20,21,21,22,22,23,23,24,24,25,25,26,26,27,27,28,28,29,29,30,30,31,31,32,32,33,33,34,34,35,35,36,36,37,37,38,38,39,39,40,40,41,41,42,42,43,43,44,44,45,45,46,46,47,47,48,48,49,49,50,50,51,51,52,52,53,53,54,54,55,55,56,56,57,57,58,58,59,59,60,60,61,61,62,62],"right_children":[2,4,6,8,10,12,14,16,18,20,22,24,26,28,30,32,34,36,38,40,42,44,46,48,50,52,54,56,58,60,62,64,66,68,70,72,74,76,78,80,82,84,86,88,90,92,94,96,98,100,102,104,106,108,110,112,114,116,118,120,122,124,126,-1,-1,-1,-1,-1,-1,-1,-1,-1,-1,-1,-1,-1,-1,-1,-1,-1,-1,-1,-1,-1,-1,-1,-1,-1,-1,-1,-1,-1,-1,-1,-1,-1,-1,-1,-1,-1,-1,-1,-1,-1,-1,-1,-1,-1,-1,-1,-1,-1,-1,-1,-1,-1,-1,-1,-1,-1,-1,-1,-1,-1,-1,-1,-1],"split_conditions":[1.59E2,1.3E1,2.57E2,1.2E2,1.9E1,2.51E2,1.1E1,1.1E1,1.3E2,1.23E2,1.2E2,2.7E1,2.019E3,2.66E2,1.9E1,3.1E1,3.5E1,7E0,6E0,1.4E1,1.3E1,2.1E1,9E0,2E0,1.2E1,9E0,1.7E1,2.1E1,4E0,4E1,3.9E1,1.9E1,7.7E1,2.2E1,8E1,2.019E3,3E0,1.45E2,1.8E1,3.1E1,1.7E1,1.57E2,1.5E1,4.8E1,1.4E1,2.019E3,2.3E1,1.7E1,1.5E1,9E0,2.019E3,1.3E1,1.1E1,1E1,2.3E1,8E0,6E0,2.019E3,2.4E1,1.8E1,1.2E1,5E0,3.55E2,-5.249294E0,-6.0098658E0,-4.067563E0,-5.4636765E0,-4.342113E0,-5.7724767E0,-1.2783498E0,-3.8856173E0,-1.404413E0,4.360445E0,-4.8200665E0,1.3620259E-1,-4.099836E0,3.1894818E-1,-4.0244093E0,-5.68602E0,-2.591629E0,-3.9153412E-1,1.6969013E0,2.4520759E-2,-3.8118732E0,-4.8506933E-1,2.7593138E0,-2.1957169E0,-8.7366515E-1,-3.0934737E0,-3.5422716E0,-4.385661E0,-3.5224676E-1,3.2578804E0,-3.3554137E0,1.1803557E-1,-4.879655E0,1.0034734E0,2.8364182E0,4.836617E0,7.107409E0,5.2806263E0,7.344283E0,2.8969612E0,1.3865029E0,-1.2079446E0,-5.4306617E0,-3.8782735E0,8.118706E0,3.6037161E0,7.2177787E0,4.6619487E0,-1.4168396E0,-4.0278497E0,5.770081E0,-5.8181915E0,-5.5224094E0,2.2013722E-1,-3.9432533E0,-5.367678E0,-2.749608E0,-4.1694508E0,-2.9965332E0,-1.3312941E0,-1.3719235E-1,-3.4910502E0,-4.6789045E0,-3.0268166E0],"split_indices":[6,0,6,6,0,6,0,0,6,6,6,7,4,6,0,6,6,0,0,0,2,0,2,2,2,2,0,2,0,7,7,2,6,6,6,4,5,6,2,6,0,6,2,6,2,4,2,0,0,3,4,0,2,2,0,0,5,4,2,2,0,5,6,0,0,0,0,0,0,0,0,0,0,0,0,0,0,0,0,0,0,0,0,0,0,0,0,0,0,0,0,0,0,0,0,0,0,0,0,0,0,0,0,0,0,0,0,0,0,0,0,0,0,0,0,0,0,0,0,0,0,0,0,0,0,0,0],"split_type":[0,0,0,0,0,0,0,0,0,0,0,0,0,0,0,0,0,0,0,0,0,0,0,0,0,0,0,0,0,0,0,0,0,0,0,0,0,0,0,0,0,0,0,0,0,0,0,0,0,0,0,0,0,0,0,0,0,0,0,0,0,0,0,0,0,0,0,0,0,0,0,0,0,0,0,0,0,0,0,0,0,0,0,0,0,0,0,0,0,0,0,0,0,0,0,0,0,0,0,0,0,0,0,0,0,0,0,0,0,0,0,0,0,0,0,0,0,0,0,0,0,0,0,0,0,0,0],"sum_hessian":[5.9012E4,2.6736E4,3.2276E4,1.2444E4,1.4292E4,2.1195E4,1.1081E4,9.392E3,3.052E3,7.854E3,6.438E3,1.9993E4,1.202E3,4.834E3,6.247E3,7.47E3,1.922E3,9.54E2,2.098E3,6.475E3,1.379E3,5.102E3,1.336E3,4.593E3,1.54E4,5.53E2,6.49E2,7.88E2,4.046E3,3.721E3,2.526E3,2.037E3,5.433E3,5.33E2,1.389E3,5.88E2,3.66E2,1.082E3,1.016E3,1.066E3,5.409E3,6.01E2,7.78E2,2.155E3,2.947E3,5.95E2,7.41E2,1.28E2,4.465E3,6.764E3,8.636E3,1.44E2,4.09E2,4.39E2,2.1E2,6.9E2,9.8E1,1.29E3,2.756E3,7.43E2,2.978E3,3.86E2,2.14E3,1.423E3,6.14E2,3.417E3,2.016E3,4.1E2,1.23E2,7.94E2,5.95E2,1.82E2,4.06E2,1.47E2,2.19E2,4.9E2,5.92E2,5.46E2,4.7E2,2.48E2,8.18E2,3.237E3,2.172E3,5.27E2,7.4E1,4.7E1,7.31E2,8.61E2,1.294E3,1.243E3,1.704E3,1.82E2,4.13E2,3.76E2,3.65E2,8.6E1,4.2E1,2.712E3,1.753E3,4.918E3,1.846E3,3.197E3,5.439E3,7.8E1,6.6E1,1.53E2,2.56E2,3.4E1,4.05E2,1.8E2,3E1,4.9E2,2E2,6.6E1,3.2E1,1.272E3,1.8E1,1.96E3,7.96E2,2.12E2,5.31E2,4.01E2,2.577E3,2.81E2,1.05E2,1.911E3,2.29E2],"tree_param":{"num_deleted":"0","num_feature":"8","num_nodes":"127","size_leaf_vector":"1"}},{"base_weights":[-9.84591E-3,-2.344544E2,1.9419482E2,-3.8021982E2,-1.07519196E2,4.7245258E2,-3.380327E2,-4.4190176E2,-1.9032178E2,1.3333813E1,-2.5493227E2,4.9395358E2,1.14710915E2,-4.1662885E2,-2.771572E2,-4.883911E2,-3.3051358E2,8.64846E1,-3.161721E2,7.00438E1,-2.5280185E2,-3.2288794E2,4.628494E0,3.404291E2,5.397167E2,-3.2246997E2,4.8714706E2,-1.6446376E2,-4.656878E2,-1.9790985E2,-3.9377032E2,-4.7107785E2,-5.7297736E2,-4.9330035E2,-2.6642764E2,2.2973936E2,-2.33227E2,-1.4047313E2,-4.5157153E2,1.2100134E2,-3.0291994E1,-3.3697702E2,-1.8742795E2,-2.1853416E2,-3.9909686E2,2.1333682E2,-1.6301947E2,-2.927175E2,3.5864127E2,6.315949E2,4.2728717E2,1.9529116E1,-4.4263434E2,3.9316092E2,6.808283E2,-2.1566826E2,1.9459462E2,-5.3877924E2,-4.312929E2,-3.7309753E2,-1.5409059E2,-1.0457066E2,-4.4586118E2,-5.2797356E0,-4.244635E0,-4.3968787E0,-5.926425E0,-5.381464E0,-4.083547E0,-1.6352351E0,-4.1111765E0,-1.6580845E0,4.008453E0,-5.3027964E0,-3.332538E-1,-3.8412936E0,6.075028E-1,-5.1208014E0,-3.120392E0,4.5379275E-1,1.8645287E0,-5.3865254E-1,2.2597563E0,-3.7738266E0,-4.8028353E-1,2.7322953E0,-2.1737895E0,-8.6493874E-1,-3.0625632E0,-2.9437175E0,-4.153742E0,-3.487437E-1,3.2253804E0,-2.719721E0,1.0884869E0,-4.8314195E0,9.93672E-1,2.8080642E0,4.7882786E0,4.5125036E0,6.559412E0,7.11227E0,2.5309615E0,1.3728136E0,-1.1960455E0,-4.978527E0,-3.4256825E0,1.1460162E0,4.455516E0,7.3452063E0,5.367567E0,-1.4026997E0,-3.9877715E0,5.7132416E0,-5.761773E0,-5.467229E0,2.1805157E-1,-3.9038413E0,-5.3140683E0,-3.3647974E0,-4.859639E0,-2.9666424E0,-1.3179862E0,-1.3582514E-1,-3.4564693E0,-4.6321397E0,-2.9966803E0],"categories":[],"categories_nodes":[],"categories_segments":[],"categories_sizes":[],"default_left":[0,0,0,0,0,0,0,0,0,0,0,0,0,0,0,0,0,0,0,0,0,0,0,0,0,0,0,0,0,0,0,0,0,0,0,0,0,0,0,0,0,0,0,0,0,0,0,0,0,0,0,0,0,0,0,0,0,0,0,0,0,0,0,0,0,0,0,0,0,0,0,0,0,0,0,0,0,0,0,0,0,0,0,0,0,0,0,0,0,0,0,0,0,0,0,0,0,0,0,0,0,0,0,0,0,0,0,0,0,0,0,0,0,0,0,0,0,0,0,0,0,0,0,0,0,0,0],"id":9,"left_children":[1,3,5,7,9,11,13,15,17,19,21,23,25,27,29,31,33,35,37,39,41,43,45,47,49,51,53,55,57,59,61,63,65,67,69,71,73,75,77,79,81,83,85,87,89,91,93,95,97,99,101,103,105,107,109,111,113,115,117,119,121,123,125,-1,-1,-1,-1,-1,-1,-1,-1,-1,-1,-1,-1,-1,-1,-1,-1,-1,-1,-1,-1,-1,-1,-1,-1,-1,-1,-1,-1,-1,-1,-1,-1,-1,-1,-1,-1,-1,-1,-1,-1,-1,-1,-1,-1,-1,-1,-1,-1,-1,-1,-1,-1,-1,-1,-1,-1,-1,-1,-1,-1,-1,-1,-1,-1],"loss_changes":[2.686921E9,4.9466752E8,4.7802685E9,1.4568768E8,2.5463768E8,1.6297933E8,5.2907264E7,4.8478976E7,1.0638215E8,1.1856969E8,1.1357661E8,1.4028902E8,1.960319E8,5.9737024E7,5.766163E7,9.43232E6,2.8755776E7,4.3792788E7,4.9870816E7,3.3114582E7,7.530784E6,4.049536E7,4.6815772E7,5.307824E7,1.5881984E8,2.2775892E7,1.1564512E7,1.454805E7,9.941696E6,2.85148E7,3.802176E7,1.4375936E7,2.67776E6,2.755424E6,2.9547392E7,4.473564E7,1.7559196E7,4.4885184E7,9.845056E6,2.124998E7,1.3193775E7,7.010328E6,1.080738E7,2.494616E7,4.903008E6,1.6165806E7,2.2008204E7,9.679472E6,4.164365E7,3.6906496E7,3.425266E8,2.391998E6,2.094896E6,6.370256E6,1.237936E6,9.484082E6,2.9076064E7,5.760864E6,1.1083968E7,2.911376E6,9.428904E6,8.484184E6,5.292576E6,0E0,0E0,0E0,0E0,0E0,0E0,0E0,0E0,0E0,0E0,0E0,0E0,0E0,0E0,0E0,0E0,0E0,0E0,0E0,0E0,0E0,0E0,0E0,0E0,0E0,0E0,0E0,0E0,0E0,0E0,0E0,0E0,0E0,0E0,0E0,0E0,0E0,0E0,0E0,0E0,0E0,0E0,0E0,0E0,0E0,0E0,0E0,0E0,0E0,0E0,0E0,0E0,0E0,0E0,0E0,0E0,0E0,0E0,0E0,0E0,0E0,0E0,0E0,0E0],"parents":[2147483647,0,0,1,1,2,2,3,3,4,4,5,5,6,6,7,7,8,8,9,9,10,10,11,11,12,12,13,13,14,14,15,15,16,16,17,17,18,18,19,19,20,20,21,21,22,22,23,23,24,24,25,25,26,26,27,27,28,28,29,29,30,30,31,31,32,32,33,33,34,34,35,35,36,36,37,37,38,38,39,39,40,40,41,41,42,42,43,43,44,44,45,45,46,46,47,47,48,48,49,49,50,50,51,51,52,52,53,53,54,54,55,55,56,56,57,57,58,58,59,59,60,60,61,61,62,62],"right_children":[2,4,6,8,10,12,14,16,18,20,22,24,26,28,30,32,34,36,38,40,42,44,46,48,50,52,54,56,58,60,62,64,66,68,70,72,74,76,78,80,82,84,86,88,90,92,94,96,98,100,102,104,106,108,110,112,114,116,118,120,122,124,126,-1,-1,-1,-1,-1,-1,-1,-1,-1,-1,-1,-1,-1,-1,-1,-1,-1,-1,-1,-1,-1,-1,-1,-1,-1,-1,-1,-1,-1,-1,-1,-1,-1,-1,-1,-1,-1,-1,-1,-1,-1,-1,-1,-1,-1,-1,-1,-1,-1,-1,-1,-1,-1,-1,-1,-1,-1,-1,-1,-1,-1,-1,-1,-1],"split_conditions":[1.59E2,1.3E1,2.57E2,1.2E2,1.9E1,2.51E2,1.1E1,1E1,1.3E2,1.23E2,1.2E2,2.7E1,2.019E3,2.66E2,1.9E1,4E0,3.5E1,8E0,5E0,8.4E1,1.3E1,2.1E1,9E0,2E0,1.6E1,9E0,1.7E1,2.1E1,4E0,4E1,3.9E1,4.2E1,1E0,1.2E1,8E1,2.019E3,3E0,1.45E2,1.53E2,4.1E1,1.2E2,1.57E2,1.5E1,4.8E1,1E0,2.019E3,2.8E1,1.7E1,1.5E1,3E0,2.019E3,1.3E1,1.3E1,3E0,2.2E1,8E0,6E0,2.019E3,2.4E1,2.019E3,1.2E1,5E0,3.55E2,-5.2797356E0,-4.244635E0,-4.3968787E0,-5.926425E0,-5.381464E0,-4.083547E0,-1.6352351E0,-4.1111765E0,-1.6580845E0,4.008453E0,-5.3027964E0,-3.332538E-1,-3.8412936E0,6.075028E-1,-5.1208014E0,-3.120392E0,4.5379275E-1,1.8645287E0,-5.3865254E-1,2.2597563E0,-3.7738266E0,-4.8028353E-1,2.7322953E0,-2.1737895E0,-8.6493874E-1,-3.0625632E0,-2.9437175E0,-4.153742E0,-3.487437E-1,3.2253804E0,-2.719721E0,1.0884869E0,-4.8314195E0,9.93672E-1,2.8080642E0,4.7882786E0,4.5125036E0,6.559412E0,7.11227E0,2.5309615E0,1.3728136E0,-1.1960455E0,-4.978527E0,-3.4256825E0,1.1460162E0,4.455516E0,7.3452063E0,5.367567E0,-1.4026997E0,-3.9877715E0,5.7132416E0,-5.761773E0,-5.467229E0,2.1805157E-1,-3.9038413E0,-5.3140683E0,-3.3647974E0,-4.859639E0,-2.9666424E0,-1.3179862E0,-1.3582514E-1,-3.4564693E0,-4.6321397E0,-2.9966803E0],"split_indices":[6,0,6,6,0,6,0,0,6,6,6,7,4,6,0,3,6,0,0,6,2,0,2,2,2,2,0,2,0,7,7,6,0,0,6,4,5,6,6,6,6,6,2,6,5,4,2,0,0,0,4,0,0,0,0,0,5,4,2,4,0,5,6,0,0,0,0,0,0,0,0,0,0,0,0,0,0,0,0,0,0,0,0,0,0,0,0,0,0,0,0,0,0,0,0,0,0,0,0,0,0,0,0,0,0,0,0,0,0,0,0,0,0,0,0,0,0,0,0,0,0,0,0,0,0,0,0],"split_type":[0,0,0,0,0,0,0,0,0,0,0,0,0,0,0,0,0,0,0,0,0,0,0,0,0,0,0,0,0,0,0,0,0,0,0,0,0,0,0,0,0,0,0,0,0,0,0,0,0,0,0,0,0,0,0,0,0,0,0,0,0,0,0,0,0,0,0,0,0,0,0,0,0,0,0,0,0,0,0,0,0,0,0,0,0,0,0,0,0,0,0,0,0,0,0,0,0,0,0,0,0,0,0,0,0,0,0,0,0,0,0,0,0,0,0,0,0,0,0,0,0,0,0,0,0,0,0],"sum_hessian":[5.9012E4,2.6736E4,3.2276E4,1.2444E4,1.4292E4,2.1195E4,1.1081E4,9.392E3,3.052E3,7.854E3,6.438E3,1.9993E4,1.202E3,4.834E3,6.247E3,6.624E3,2.768E3,9.54E2,2.098E3,6.475E3,1.379E3,5.102E3,1.336E3,4.593E3,1.54E4,5.53E2,6.49E2,7.88E2,4.046E3,3.721E3,2.526E3,5.504E3,1.12E3,7.8E2,1.988E3,6.59E2,2.95E2,9.14E2,1.184E3,4.294E3,2.181E3,6.01E2,7.78E2,2.155E3,2.947E3,5.95E2,7.41E2,1.28E2,4.465E3,8.472E3,6.928E3,1.44E2,4.09E2,4.39E2,2.1E2,6.9E2,9.8E1,1.29E3,2.756E3,7.43E2,2.978E3,3.86E2,2.14E3,2.474E3,3.03E3,1.47E2,9.73E2,5.07E2,2.73E2,1.163E3,8.25E2,1.99E2,4.6E2,1.18E2,1.77E2,4.13E2,5.01E2,8.24E2,3.6E2,1.993E3,2.301E3,1.998E3,1.83E2,5.27E2,7.4E1,4.7E1,7.31E2,8.61E2,1.294E3,3.99E2,2.548E3,1.82E2,4.13E2,5.29E2,2.12E2,8.6E1,4.2E1,2.712E3,1.753E3,1.01E3,7.462E3,2.633E3,4.295E3,7.8E1,6.6E1,2.61E2,1.48E2,7E1,3.69E2,1.5E2,6E1,4.9E2,2E2,6.6E1,3.2E1,1.272E3,1.8E1,1.96E3,7.96E2,5.64E2,1.79E2,4.01E2,2.577E3,2.81E2,1.05E2,1.911E3,2.29E2],"tree_param":{"num_deleted":"0","num_feature":"8","num_nodes":"127","size_leaf_vector":"1"}},{"base_weights":[-1.0896523E-2,-2.3211208E2,1.9225261E2,-3.7642163E2,-1.06444664E2,4.677297E2,-3.346563E2,-4.3748648E2,-1.8842339E2,1.3200518E1,-2.5238448E2,4.890153E2,1.1357219E2,-4.1246664E2,-2.743894E2,-4.8351022E2,-3.2721393E2,8.5616325E1,-3.130158E2,6.934399E1,-2.5027652E2,-3.1966122E2,4.5831347E0,3.3702567E2,5.3432086E2,-3.1926013E2,4.8230377E2,-1.62826E2,-4.610345E2,-1.9593411E2,-3.8983707E2,-4.663688E2,-5.672568E2,-4.8837946E2,-2.6376624E2,2.5285051E2,-1.8301189E2,-1.6484564E2,-4.7049396E2,-9.030329E1,1.0081798E2,-3.3361435E2,-1.8555298E2,-2.1635065E2,-3.951083E2,2.1120827E2,-1.6139148E2,9.6825836E1,3.845393E2,6.480506E2,4.4517926E2,1.9335049E1,-4.3822852E2,3.8924207E2,6.740803E2,-2.1351936E2,1.9264816E2,-5.333955E2,-4.269833E2,-3.693776E2,-1.5255113E2,-1.0353425E2,-4.4140613E2,-5.2269597E0,-4.202203E0,-4.353207E0,-5.8672214E0,-5.3277555E0,-4.0428605E0,-1.6188966E0,-4.070114E0,-1.3739554E0,4.276962E0,-4.7335553E0,1.314206E-1,-4.0185795E0,3.1676933E-1,-3.9444246E0,-5.578181E0,-2.5703368E0,-3.9502102E-1,1.6728381E0,1.7304612E-2,-3.7361598E0,-4.7554472E-1,2.7055416E0,-2.1520815E0,-8.562995E-1,-3.0319612E0,-3.5279949E0,-4.3560476E0,-3.452752E-1,3.1932042E0,-3.2948236E0,1.2192275E-1,3.8966293E0,-3.584775E0,3.1520746E0,5.4045973E0,5.5351944E0,7.1773167E0,7.20109E0,2.8347511E0,1.3592594E0,-1.1842636E0,-5.3311787E0,-3.7966359E0,7.9965568E0,3.5290287E0,7.076231E0,4.5648894E0,-1.3887011E0,-3.9480922E0,5.6569614E0,-5.705901E0,-5.4126E0,2.1598557E-1,-3.8648224E0,-5.260994E0,-2.68461E0,-4.0908785E0,-2.93705E0,-1.3048114E0,-1.3447194E-1,-3.4222307E0,-4.5858426E0,-2.9668436E0],"categories":[],"categories_nodes":[],"categories_segments":[],"categories_sizes":[],"default_left":[0,0,0,0,0,0,0,0,0,0,0,0,0,0,0,0,0,0,0,0,0,0,0,0,0,0,0,0,0,0,0,0,0,0,0,0,0,0,0,0,0,0,0,0,0,0,0,0,0,0,0,0,0,0,0,0,0,0,0,0,0,0,0,0,0,0,0,0,0,0,0,0,0,0,0,0,0,0,0,0,0,0,0,0,0,0,0,0,0,0,0,0,0,0,0,0,0,0,0,0,0,0,0,0,0,0,0,0,0,0,0,0,0,0,0,0,0,0,0,0,0,0,0,0,0,0,0],"id":10,"left_children":[1,3,5,7,9,11,13,15,17,19,21,23,25,27,29,31,33,35,37,39,41,43,45,47,49,51,53,55,57,59,61,63,65,67,69,71,73,75,77,79,81,83,85,87,89,91,93,95,97,99,101,103,105,107,109,111,113,115,117,119,121,123,125,-1,-1,-1,-1,-1,-1,-1,-1,-1,-1,-1,-1,-1,-1,-1,-1,-1,-1,-1,-1,-1,-1,-1,-1,-1,-1,-1,-1,-1,-1,-1,-1,-1,-1,-1,-1,-1,-1,-1,-1,-1,-1,-1,-1,-1,-1,-1,-1,-1,-1,-1,-1,-1,-1,-1,-1,-1,-1,-1,-1,-1,-1,-1,-1],"loss_changes":[2.6334756E9,4.848357E8,4.6852065E9,1.427872E8,2.495733E8,1.5972966E8,5.185459E7,4.7512704E7,1.04266216E8,1.1621257E8,1.1131862E8,1.3749811E8,1.921515E8,5.854688E7,5.6514784E7,9.245824E6,2.8185856E7,4.294853E7,4.8899584E7,3.2549304E7,7.381704E6,3.968973E7,4.5885868E7,5.239309E7,1.5584768E8,2.2324768E7,1.1338208E7,1.4259058E7,9.743936E6,2.7949824E7,3.726381E7,1.409024E7,2.62352E6,2.7004E6,2.896024E7,4.02479E7,2.0907624E7,5.0457E7,6.534E6,9.027446E6,3.5629612E7,6.870844E6,1.0594934E7,2.4450032E7,4.897312E6,1.5844978E7,2.165398E7,1.0147027E8,4.128691E7,4.416384E7,3.837733E8,2.345047E6,2.07604E6,6.280004E6,1.216992E6,9.296582E6,2.8510508E7,5.64656E6,1.0864128E7,2.871696E6,9.242048E6,8.316972E6,5.186592E6,0E0,0E0,0E0,0E0,0E0,0E0,0E0,0E0,0E0,0E0,0E0,0E0,0E0,0E0,0E0,0E0,0E0,0E0,0E0,0E0,0E0,0E0,0E0,0E0,0E0,0E0,0E0,0E0,0E0,0E0,0E0,0E0,0E0,0E0,0E0,0E0,0E0,0E0,0E0,0E0,0E0,0E0,0E0,0E0,0E0,0E0,0E0,0E0,0E0,0E0,0E0,0E0,0E0,0E0,0E0,0E0,0E0,0E0,0E0,0E0,0E0,0E0,0E0,0E0],"parents":[2147483647,0,0,1,1,2,2,3,3,4,4,5,5,6,6,7,7,8,8,9,9,10,10,11,11,12,12,13,13,14,14,15,15,16,16,17,17,18,18,19,19,20,20,21,21,22,22,23,23,24,24,25,25,26,26,27,27,28,28,29,29,30,30,31,31,32,32,33,33,34,34,35,35,36,36,37,37,38,38,39,39,40,40,41,41,42,42,43,43,44,44,45,45,46,46,47,47,48,48,49,49,50,50,51,51,52,52,53,53,54,54,55,55,56,56,57,57,58,58,59,59,60,60,61,61,62,62],"right_children":[2,4,6,8,10,12,14,16,18,20,22,24,26,28,30,32,34,36,38,40,42,44,46,48,50,52,54,56,58,60,62,64,66,68,70,72,74,76,78,80,82,84,86,88,90,92,94,96,98,100,102,104,106,108,110,112,114,116,118,120,122,124,126,-1,-1,-1,-1,-1,-1,-1,-1,-1,-1,-1,-1,-1,-1,-1,-1,-1,-1,-1,-1,-1,-1,-1,-1,-1,-1,-1,-1,-1,-1,-1,-1,-1,-1,-1,-1,-1,-1,-1,-1,-1,-1,-1,-1,-1,-1,-1,-1,-1,-1,-1,-1,-1,-1,-1,-1,-1,-1,-1,-1,-1,-1,-1,-1],"split_conditions":[1.59E2,1.3E1,2.57E2,1.2E2,1.9E1,2.51E2,1.1E1,1E1,1.3E2,1.23E2,1.2E2,2.7E1,2.019E3,2.66E2,1.9E1,4E0,3.5E1,7E0,6E0,1.4E1,1.3E1,2.1E1,9E0,1.1E1,1.2E1,9E0,1.7E1,2.1E1,4E0,4E1,3.9E1,4.2E1,1E0,1.2E1,8E1,2.019E3,3E0,1.45E2,1.8E1,3.1E1,1.7E1,1.57E2,1.5E1,4.8E1,5.6E1,2.019E3,2.3E1,2.019E3,1.7E1,5E0,2.019E3,1.3E1,1.1E1,1E1,2.3E1,8E0,6E0,2.019E3,2.4E1,1.8E1,1.2E1,5E0,3.55E2,-5.2269597E0,-4.202203E0,-4.353207E0,-5.8672214E0,-5.3277555E0,-4.0428605E0,-1.6188966E0,-4.070114E0,-1.3739554E0,4.276962E0,-4.7335553E0,1.314206E-1,-4.0185795E0,3.1676933E-1,-3.9444246E0,-5.578181E0,-2.5703368E0,-3.9502102E-1,1.6728381E0,1.7304612E-2,-3.7361598E0,-4.7554472E-1,2.7055416E0,-2.1520815E0,-8.562995E-1,-3.0319612E0,-3.5279949E0,-4.3560476E0,-3.452752E-1,3.1932042E0,-3.2948236E0,1.2192275E-1,3.8966293E0,-3.584775E0,3.1520746E0,5.4045973E0,5.5351944E0,7.1773167E0,7.20109E0,2.8347511E0,1.3592594E0,-1.1842636E0,-5.3311787E0,-3.7966359E0,7.9965568E0,3.5290287E0,7.076231E0,4.5648894E0,-1.3887011E0,-3.9480922E0,5.6569614E0,-5.705901E0,-5.4126E0,2.1598557E-1,-3.8648224E0,-5.260994E0,-2.68461E0,-4.0908785E0,-2.93705E0,-1.3048114E0,-1.3447194E-1,-3.4222307E0,-4.5858426E0,-2.9668436E0],"split_indices":[6,0,6,6,0,6,0,0,6,6,6,7,4,6,0,3,6,0,0,0,2,0,2,2,2,2,0,2,0,7,7,6,0,0,6,4,5,6,2,6,0,6,2,6,6,4,2,4,0,2,4,0,2,2,0,0,5,4,2,2,0,5,6,0,0,0,0,0,0,0,0,0,0,0,0,0,0,0,0,0,0,0,0,0,0,0,0,0,0,0,0,0,0,0,0,0,0,0,0,0,0,0,0,0,0,0,0,0,0,0,0,0,0,0,0,0,0,0,0,0,0,0,0,0,0,0,0],"split_type":[0,0,0,0,0,0,0,0,0,0,0,0,0,0,0,0,0,0,0,0,0,0,0,0,0,0,0,0,0,0,0,0,0,0,0,0,0,0,0,0,0,0,0,0,0,0,0,0,0,0,0,0,0,0,0,0,0,0,0,0,0,0,0,0,0,0,0,0,0,0,0,0,0,0,0,0,0,0,0,0,0,0,0,0,0,0,0,0,0,0,0,0,0,0,0,0,0,0,0,0,0,0,0,0,0,0,0,0,0,0,0,0,0,0,0,0,0,0,0,0,0,0,0,0,0,0,0],"sum_hessian":[5.9012E4,2.6736E4,3.2276E4,1.2444E4,1.4292E4,2.1195E4,1.1081E4,9.392E3,3.052E3,7.854E3,6.438E3,1.9993E4,1.202E3,4.834E3,6.247E3,6.624E3,2.768E3,9.54E2,2.098E3,6.475E3,1.379E3,5.102E3,1.336E3,4.593E3,1.54E4,5.53E2,6.49E2,7.88E2,4.046E3,3.721E3,2.526E3,5.504E3,1.12E3,7.8E2,1.988E3,5.88E2,3.66E2,1.082E3,1.016E3,1.066E3,5.409E3,6.01E2,7.78E2,2.155E3,2.947E3,5.95E2,7.41E2,7.59E2,3.834E3,6.764E3,8.636E3,1.44E2,4.09E2,4.39E2,2.1E2,6.9E2,9.8E1,1.29E3,2.756E3,7.43E2,2.978E3,3.86E2,2.14E3,2.474E3,3.03E3,1.47E2,9.73E2,5.07E2,2.73E2,1.163E3,8.25E2,1.82E2,4.06E2,1.47E2,2.19E2,4.9E2,5.92E2,5.46E2,4.7E2,2.48E2,8.18E2,3.237E3,2.172E3,5.27E2,7.4E1,4.7E1,7.31E2,8.61E2,1.294E3,1.446E3,1.501E3,1.82E2,4.13E2,3.76E2,3.65E2,4.62E2,2.97E2,2.656E3,1.178E3,2.874E3,3.89E3,3.197E3,5.439E3,7.8E1,6.6E1,1.53E2,2.56E2,3.4E1,4.05E2,1.8E2,3E1,4.9E2,2E2,6.6E1,3.2E1,1.272E3,1.8E1,1.96E3,7.96E2,2.12E2,5.31E2,4.01E2,2.577E3,2.81E2,1.05E2,1.911E3,2.29E2],"tree_param":{"num_deleted":"0","num_feature":"8","num_nodes":"127","size_leaf_vector":"1"}},{"base_weights":[-1.1856056E-2,-2.2979346E2,1.903302E2,-3.7266138E2,-1.0538141E2,4.6305457E2,-3.3131354E2,-4.331153E2,-1.8654405E2,1.306787E1,-2.498625E2,4.841267E2,1.1244827E2,-4.0834607E2,-2.7164908E2,-4.6891617E2,-2.9380103E2,8.4758385E1,-3.0989197E2,6.865034E1,-2.4777641E2,-3.1646692E2,4.5370555E0,3.3365732E2,5.289791E2,-3.1608368E2,4.7751636E2,-1.6120457E2,-4.5642767E2,-1.9397772E2,-3.859431E2,-5.321386E2,-4.4511856E2,-4.542067E2,-2.3196617E2,2.2539308E2,-2.2910533E2,-1.3743152E2,-4.427961E2,1.19137E2,-3.075796E1,-3.3028522E2,-1.8369672E2,-2.1418892E2,-3.9115988E2,2.0910098E2,-1.5978186E2,-2.9368646E2,3.5170337E2,6.1924554E2,4.1852216E2,1.914291E1,-4.338685E2,3.8537582E2,6.6739465E2,-2.113919E2,1.9072118E2,-5.2806555E2,-4.227168E2,-3.6569293E2,-1.5102704E2,-1.025081E2,-4.3699564E2,-5.0916157E0,-5.8447537E0,-3.943623E0,-5.3090916E0,-4.2053514E0,-5.6214867E0,-1.233082E0,-3.76515E0,-1.6265194E0,3.932534E0,-5.2032757E0,-3.312467E-1,-3.7628849E0,5.982787E-1,-3.4042566E0,-5.22882E0,4.4419214E-1,1.8380604E0,-5.409046E-1,2.228965E0,-3.6988692E0,-4.7085288E-1,2.6790497E0,-2.13059E0,-8.477462E-1,-3.0016646E0,-3.3505056E0,-4.2152267E0,-3.418413E-1,3.1613498E0,-2.6695528E0,1.0764391E0,-4.8221784E0,9.4590664E-1,2.7532773E0,4.6963687E0,4.4074326E0,6.4334393E0,6.9691906E0,2.4773169E0,1.3458388E0,-1.1725978E0,-4.8844333E0,-3.349928E0,1.0999242E0,4.371781E0,7.2019467E0,5.25752E0,-1.3748426E0,-3.9088073E0,5.601236E0,-5.650572E0,-5.358516E0,2.139392E-1,-3.826194E0,-5.2084503E0,-3.2941806E0,-4.775241E0,-2.9077523E0,-1.2917684E0,-1.3313209E-1,-3.3883312E0,-4.5400085E0,-2.937304E0],"categories":[],"categories_nodes":[],"categories_segments":[],"categories_sizes":[],"default_left":[0,0,0,0,0,0,0,0,0,0,0,0,0,0,0,0,0,0,0,0,0,0,0,0,0,0,0,0,0,0,0,0,0,0,0,0,0,0,0,0,0,0,0,0,0,0,0,0,0,0,0,0,0,0,0,0,0,0,0,0,0,0,0,0,0,0,0,0,0,0,0,0,0,0,0,0,0,0,0,0,0,0,0,0,0,0,0,0,0,0,0,0,0,0,0,0,0,0,0,0,0,0,0,0,0,0,0,0,0,0,0,0,0,0,0,0,0,0,0,0,0,0,0,0,0,0,0],"id":11,"left_children":[1,3,5,7,9,11,13,15,17,19,21,23,25,27,29,31,33,35,37,39,41,43,45,47,49,51,53,55,57,59,61,63,65,67,69,71,73,75,77,79,81,83,85,87,89,91,93,95,97,99,101,103,105,107,109,111,113,115,117,119,121,123,125,-1,-1,-1,-1,-1,-1,-1,-1,-1,-1,-1,-1,-1,-1,-1,-1,-1,-1,-1,-1,-1,-1,-1,-1,-1,-1,-1,-1,-1,-1,-1,-1,-1,-1,-1,-1,-1,-1,-1,-1,-1,-1,-1,-1,-1,-1,-1,-1,-1,-1,-1,-1,-1,-1,-1,-1,-1,-1,-1,-1,-1,-1,-1,-1],"loss_changes":[2.5811013E9,4.751973E8,4.592039E9,1.3994432E8,2.4460912E8,1.5654246E8,5.082304E7,4.671053E7,1.0219365E8,1.139017E8,1.0910474E8,1.3476096E8,1.8835227E8,5.7380544E7,5.5390976E7,1.100352E7,1.8968224E7,4.2205464E7,4.804971E7,3.2505368E7,7.235576E6,3.890032E7,4.497496E7,5.211232E7,1.532974E8,2.1882772E7,1.111488E7,1.3975804E7,9.550144E6,2.7395584E7,3.652109E7,2.15328E6,2.3452544E7,1.704472E6,2.1785448E7,4.305462E7,1.687665E7,4.3134364E7,9.537136E6,2.0744972E7,1.2925988E7,6.734136E6,1.038666E7,2.3963784E7,4.881056E6,1.5530514E7,2.129515E7,9.488728E6,4.009709E7,3.6164096E7,3.2928422E8,2.2990175E6,2.048792E6,6.228732E6,1.199368E6,9.112786E6,2.7955954E7,5.53456E6,1.064864E7,2.86084E6,9.058888E6,8.153056E6,5.082688E6,0E0,0E0,0E0,0E0,0E0,0E0,0E0,0E0,0E0,0E0,0E0,0E0,0E0,0E0,0E0,0E0,0E0,0E0,0E0,0E0,0E0,0E0,0E0,0E0,0E0,0E0,0E0,0E0,0E0,0E0,0E0,0E0,0E0,0E0,0E0,0E0,0E0,0E0,0E0,0E0,0E0,0E0,0E0,0E0,0E0,0E0,0E0,0E0,0E0,0E0,0E0,0E0,0E0,0E0,0E0,0E0,0E0,0E0,0E0,0E0,0E0,0E0,0E0,0E0],"parents":[2147483647,0,0,1,1,2,2,3,3,4,4,5,5,6,6,7,7,8,8,9,9,10,10,11,11,12,12,13,13,14,14,15,15,16,16,17,17,18,18,19,19,20,20,21,21,22,22,23,23,24,24,25,25,26,26,27,27,28,28,29,29,30,30,31,31,32,32,33,33,34,34,35,35,36,36,37,37,38,38,39,39,40,40,41,41,42,42,43,43,44,44,45,45,46,46,47,47,48,48,49,49,50,50,51,51,52,52,53,53,54,54,55,55,56,56,57,57,58,58,59,59,60,60,61,61,62,62],"right_children":[2,4,6,8,10,12,14,16,18,20,22,24,26,28,30,32,34,36,38,40,42,44,46,48,50,52,54,56,58,60,62,64,66,68,70,72,74,76,78,80,82,84,86,88,90,92,94,96,98,100,102,104,106,108,110,112,114,116,118,120,122,124,126,-1,-1,-1,-1,-1,-1,-1,-1,-1,-1,-1,-1,-1,-1,-1,-1,-1,-1,-1,-1,-1,-1,-1,-1,-1,-1,-1,-1,-1,-1,-1,-1,-1,-1,-1,-1,-1,-1,-1,-1,-1,-1,-1,-1,-1,-1,-1,-1,-1,-1,-1,-1,-1,-1,-1,-1,-1,-1,-1,-1,-1,-1,-1,-1],"split_conditions":[1.59E2,1.3E1,2.57E2,1.2E2,1.9E1,2.51E2,1.1E1,1.1E1,1.3E2,1.23E2,1.2E2,2.7E1,2.019E3,2.66E2,1.9E1,3.1E1,3.5E1,8E0,5E0,8.4E1,1.3E1,2.1E1,9E0,2E0,1.6E1,9E0,1.7E1,2.1E1,4E0,4E1,3.9E1,1.9E1,7.7E1,2.2E1,8E1,2.019E3,3E0,1.45E2,1.4E1,4.1E1,1.2E2,1.57E2,1.5E1,4.8E1,2.2E1,2.019E3,2.8E1,1.7E1,1.5E1,3E0,2.019E3,1.3E1,1.3E1,3E0,2.2E1,8E0,6E0,2.019E3,2.4E1,2.019E3,1.2E1,5E0,3.55E2,-5.0916157E0,-5.8447537E0,-3.943623E0,-5.3090916E0,-4.2053514E0,-5.6214867E0,-1.233082E0,-3.76515E0,-1.6265194E0,3.932534E0,-5.2032757E0,-3.312467E-1,-3.7628849E0,5.982787E-1,-3.4042566E0,-5.22882E0,4.4419214E-1,1.8380604E0,-5.409046E-1,2.228965E0,-3.6988692E0,-4.7085288E-1,2.6790497E0,-2.13059E0,-8.477462E-1,-3.0016646E0,-3.3505056E0,-4.2152267E0,-3.418413E-1,3.1613498E0,-2.6695528E0,1.0764391E0,-4.8221784E0,9.4590664E-1,2.7532773E0,4.6963687E0,4.4074326E0,6.4334393E0,6.9691906E0,2.4773169E0,1.3458388E0,-1.1725978E0,-4.8844333E0,-3.349928E0,1.0999242E0,4.371781E0,7.2019467E0,5.25752E0,-1.3748426E0,-3.9088073E0,5.601236E0,-5.650572E0,-5.358516E0,2.139392E-1,-3.826194E0,-5.2084503E0,-3.2941806E0,-4.775241E0,-2.9077523E0,-1.2917684E0,-1.3313209E-1,-3.3883312E0,-4.5400085E0,-2.937304E0],"split_indices":[6,0,6,6,0,6,0,0,6,6,6,7,4,6,0,6,6,0,0,6,2,0,2,2,2,2,0,2,0,7,7,2,6,6,6,4,5,6,2,6,6,6,2,6,0,4,2,0,0,0,4,0,0,0,0,0,5,4,2,4,0,5,6,0,0,0,0,0,0,0,0,0,0,0,0,0,0,0,0,0,0,0,0,0,0,0,0,0,0,0,0,0,0,0,0,0,0,0,0,0,0,0,0,0,0,0,0,0,0,0,0,0,0,0,0,0,0,0,0,0,0,0,0,0,0,0,0],"split_type":[0,0,0,0,0,0,0,0,0,0,0,0,0,0,0,0,0,0,0,0,0,0,0,0,0,0,0,0,0,0,0,0,0,0,0,0,0,0,0,0,0,0,0,0,0,0,0,0,0,0,0,0,0,0,0,0,0,0,0,0,0,0,0,0,0,0,0,0,0,0,0,0,0,0,0,0,0,0,0,0,0,0,0,0,0,0,0,0,0,0,0,0,0,0,0,0,0,0,0,0,0,0,0,0,0,0,0,0,0,0,0,0,0,0,0,0,0,0,0,0,0,0,0,0,0,0,0],"sum_hessian":[5.9012E4,2.6736E4,3.2276E4,1.2444E4,1.4292E4,2.1195E4,1.1081E4,9.392E3,3.052E3,7.854E3,6.438E3,1.9993E4,1.202E3,4.834E3,6.247E3,7.47E3,1.922E3,9.54E2,2.098E3,6.475E3,1.379E3,5.102E3,1.336E3,4.593E3,1.54E4,5.53E2,6.49E2,7.88E2,4.046E3,3.721E3,2.526E3,2.037E3,5.433E3,5.33E2,1.389E3,6.59E2,2.95E2,9.14E2,1.184E3,4.294E3,2.181E3,6.01E2,7.78E2,2.155E3,2.947E3,5.95E2,7.41E2,1.28E2,4.465E3,8.472E3,6.928E3,1.44E2,4.09E2,4.39E2,2.1E2,6.9E2,9.8E1,1.29E3,2.756E3,7.43E2,2.978E3,3.86E2,2.14E3,1.423E3,6.14E2,3.417E3,2.016E3,4.1E2,1.23E2,7.94E2,5.95E2,1.99E2,4.6E2,1.18E2,1.77E2,4.13E2,5.01E2,5.22E2,6.62E2,1.993E3,2.301E3,1.998E3,1.83E2,5.27E2,7.4E1,4.7E1,7.31E2,8.61E2,1.294E3,1.039E3,1.908E3,1.82E2,4.13E2,5.29E2,2.12E2,8.6E1,4.2E1,2.712E3,1.753E3,1.01E3,7.462E3,2.633E3,4.295E3,7.8E1,6.6E1,2.61E2,1.48E2,7E1,3.69E2,1.5E2,6E1,4.9E2,2E2,6.6E1,3.2E1,1.272E3,1.8E1,1.96E3,7.96E2,5.64E2,1.79E2,4.01E2,2.577E3,2.81E2,1.05E2,1.911E3,2.29E2],"tree_param":{"num_deleted":"0","num_feature":"8","num_nodes":"127","size_leaf_vector":"1"}},{"base_weights":[-1.2904947E-2,-2.2749777E2,1.8842662E2,-3.689388E2,-1.0432829E2,4.5842563E2,-3.2800427E2,-4.2878787E2,-1.8468353E2,1.2937224E1,-2.4736546E2,4.7928665E2,1.11332E2,-4.0426666E2,-2.6893628E2,-4.7399484E2,-3.204727E2,8.39074E1,-3.0679868E2,6.796443E1,-2.4530127E2,-3.133045E2,4.492601E0,3.3032153E2,5.236907E2,-3.129374E2,4.727688E2,-1.595993E2,-4.518669E2,-1.9204124E2,-3.82088E2,-4.5715094E2,-5.5628894E2,-4.7877258E2,-2.5815356E2,2.4811879E2,-1.7986485E2,-1.613526E2,-4.6138205E2,-9.006267E1,9.911913E1,-3.2698932E2,-1.8185902E2,-2.1204884E2,-3.8725085E2,2.070147E2,-1.5818619E2,-2.9077963E2,3.4818802E2,6.353833E2,4.3614587E2,1.8952686E1,-4.295499E2,3.8153452E2,6.607798E2,-2.0928564E2,1.8881345E2,-5.227889E2,-4.1849292E2,-3.620468E2,-1.4951819E2,-1.0149214E2,-4.3262912E2,-5.1252203E0,-4.1178613E0,-4.257237E0,-5.755573E0,-5.2260575E0,-3.9575787E0,-1.5815741E0,-3.9875572E0,-1.3441145E0,4.195068E0,-4.6486278E0,1.2678595E-1,-3.939182E0,3.148226E-1,-5.1398535E0,-3.397545E0,-5.230897E-1,-3.118631E0,1.6491554E0,1.0299082E-2,-3.6619508E0,-4.662074E-1,2.652817E0,-2.1093128E0,-8.392789E-1,-2.9716713E0,-3.3891802E0,-4.2228827E0,-3.3844143E-1,3.1298122E0,-3.235338E0,1.2563124E-1,-4.774511E0,9.3666744E-1,2.7257547E0,4.649432E0,6.8456783E0,5.040492E0,7.0607247E0,2.7738457E0,1.3325509E0,-1.1610466E0,-5.2335715E0,-3.7166715E0,7.8764067E0,3.4558558E0,6.937461E0,4.469834E0,-1.3611226E0,-3.8699136E0,5.5460596E0,-5.595778E0,-5.304973E0,2.1191251E-1,-3.787952E0,-5.156431E0,-2.621E0,-4.013826E0,-2.878747E0,-1.2788559E0,-1.3180564E-1,-3.3547678E0,-4.809E0,-3.8210943E0],"categories":[],"categories_nodes":[],"categories_segments":[],"categories_sizes":[],"default_left":[0,0,0,0,0,0,0,0,0,0,0,0,0,0,0,0,0,0,0,0,0,0,0,0,0,0,0,0,0,0,0,0,0,0,0,0,0,0,0,0,0,0,0,0,0,0,0,0,0,0,0,0,0,0,0,0,0,0,0,0,0,0,0,0,0,0,0,0,0,0,0,0,0,0,0,0,0,0,0,0,0,0,0,0,0,0,0,0,0,0,0,0,0,0,0,0,0,0,0,0,0,0,0,0,0,0,0,0,0,0,0,0,0,0,0,0,0,0,0,0,0,0,0,0,0,0,0],"id":12,"left_children":[1,3,5,7,9,11,13,15,17,19,21,23,25,27,29,31,33,35,37,39,41,43,45,47,49,51,53,55,57,59,61,63,65,67,69,71,73,75,77,79,81,83,85,87,89,91,93,95,97,99,101,103,105,107,109,111,113,115,117,119,121,123,125,-1,-1,-1,-1,-1,-1,-1,-1,-1,-1,-1,-1,-1,-1,-1,-1,-1,-1,-1,-1,-1,-1,-1,-1,-1,-1,-1,-1,-1,-1,-1,-1,-1,-1,-1,-1,-1,-1,-1,-1,-1,-1,-1,-1,-1,-1,-1,-1,-1,-1,-1,-1,-1,-1,-1,-1,-1,-1,-1,-1,-1,-1,-1,-1],"loss_changes":[2.5297615E9,4.6575258E8,4.50072E9,1.3715814E8,2.397444E8,1.5342131E8,4.981197E7,4.584192E7,1.0016114E8,1.11637336E8,1.0693565E8,1.3208013E8,1.8462387E8,5.623744E7,5.428928E7,8.929024E6,2.7192896E7,4.1409892E7,4.711851E7,3.1892138E7,7.092352E6,3.812653E7,4.4081612E7,5.1080384E7,1.5031552E8,2.1449348E7,1.0897376E7,1.3698176E7,9.360256E6,2.6852784E7,3.579309E7,1.3616768E7,2.575136E6,2.635088E6,2.7901624E7,3.8671876E7,2.0144828E7,4.858145E7,6.33216E6,8.918517E6,3.4915524E7,6.600152E6,1.0182482E7,2.3487192E7,4.849184E6,1.5222288E7,2.0952948E7,9.302424E6,3.929984E7,4.3354624E7,3.6993344E8,2.2538915E6,2.031712E6,6.151392E6,1.177048E6,8.932624E6,2.7412178E7,5.424704E6,1.0437408E7,2.819824E6,8.87936E6,7.992373E6,5.037344E6,0E0,0E0,0E0,0E0,0E0,0E0,0E0,0E0,0E0,0E0,0E0,0E0,0E0,0E0,0E0,0E0,0E0,0E0,0E0,0E0,0E0,0E0,0E0,0E0,0E0,0E0,0E0,0E0,0E0,0E0,0E0,0E0,0E0,0E0,0E0,0E0,0E0,0E0,0E0,0E0,0E0,0E0,0E0,0E0,0E0,0E0,0E0,0E0,0E0,0E0,0E0,0E0,0E0,0E0,0E0,0E0,0E0,0E0,0E0,0E0,0E0,0E0,0E0,0E0],"parents":[2147483647,0,0,1,1,2,2,3,3,4,4,5,5,6,6,7,7,8,8,9,9,10,10,11,11,12,12,13,13,14,14,15,15,16,16,17,17,18,18,19,19,20,20,21,21,22,22,23,23,24,24,25,25,26,26,27,27,28,28,29,29,30,30,31,31,32,32,33,33,34,34,35,35,36,36,37,37,38,38,39,39,40,40,41,41,42,42,43,43,44,44,45,45,46,46,47,47,48,48,49,49,50,50,51,51,52,52,53,53,54,54,55,55,56,56,57,57,58,58,59,59,60,60,61,61,62,62],"right_children":[2,4,6,8,10,12,14,16,18,20,22,24,26,28,30,32,34,36,38,40,42,44,46,48,50,52,54,56,58,60,62,64,66,68,70,72,74,76,78,80,82,84,86,88,90,92,94,96,98,100,102,104,106,108,110,112,114,116,118,120,122,124,126,-1,-1,-1,-1,-1,-1,-1,-1,-1,-1,-1,-1,-1,-1,-1,-1,-1,-1,-1,-1,-1,-1,-1,-1,-1,-1,-1,-1,-1,-1,-1,-1,-1,-1,-1,-1,-1,-1,-1,-1,-1,-1,-1,-1,-1,-1,-1,-1,-1,-1,-1,-1,-1,-1,-1,-1,-1,-1,-1,-1,-1,-1,-1,-1],"split_conditions":[1.59E2,1.3E1,2.57E2,1.2E2,1.9E1,2.51E2,1.1E1,1E1,1.3E2,1.23E2,1.2E2,2.7E1,2.019E3,2.66E2,1.9E1,4E0,3.5E1,7E0,6E0,1.4E1,1.3E1,2.1E1,9E0,2E0,1.2E1,9E0,1.7E1,2.1E1,4E0,4E1,3.9E1,4.2E1,1E0,1.2E1,8E1,2.019E3,3E0,1.45E2,1.53E2,2.6E1,1.7E1,1.57E2,1.5E1,4.8E1,1.4E1,2.019E3,2.3E1,1.7E1,1.5E1,9E0,2.019E3,1.3E1,1.1E1,1E1,2.3E1,8E0,6E0,2.019E3,2.4E1,1.8E1,1.2E1,5E0,3.19E2,-5.1252203E0,-4.1178613E0,-4.257237E0,-5.755573E0,-5.2260575E0,-3.9575787E0,-1.5815741E0,-3.9875572E0,-1.3441145E0,4.195068E0,-4.6486278E0,1.2678595E-1,-3.939182E0,3.148226E-1,-5.1398535E0,-3.397545E0,-5.230897E-1,-3.118631E0,1.6491554E0,1.0299082E-2,-3.6619508E0,-4.662074E-1,2.652817E0,-2.1093128E0,-8.392789E-1,-2.9716713E0,-3.3891802E0,-4.2228827E0,-3.3844143E-1,3.1298122E0,-3.235338E0,1.2563124E-1,-4.774511E0,9.3666744E-1,2.7257547E0,4.649432E0,6.8456783E0,5.040492E0,7.0607247E0,2.7738457E0,1.3325509E0,-1.1610466E0,-5.2335715E0,-3.7166715E0,7.8764067E0,3.4558558E0,6.937461E0,4.469834E0,-1.3611226E0,-3.8699136E0,5.5460596E0,-5.595778E0,-5.304973E0,2.1191251E-1,-3.787952E0,-5.156431E0,-2.621E0,-4.013826E0,-2.878747E0,-1.2788559E0,-1.3180564E-1,-3.3547678E0,-4.809E0,-3.8210943E0],"split_indices":[6,0,6,6,0,6,0,0,6,6,6,7,4,6,0,3,6,0,0,0,2,0,2,2,2,2,0,2,0,7,7,6,0,0,6,4,5,6,6,2,0,6,2,6,2,4,2,0,0,3,4,0,2,2,0,0,5,4,2,2,0,5,6,0,0,0,0,0,0,0,0,0,0,0,0,0,0,0,0,0,0,0,0,0,0,0,0,0,0,0,0,0,0,0,0,0,0,0,0,0,0,0,0,0,0,0,0,0,0,0,0,0,0,0,0,0,0,0,0,0,0,0,0,0,0,0,0],"split_type":[0,0,0,0,0,0,0,0,0,0,0,0,0,0,0,0,0,0,0,0,0,0,0,0,0,0,0,0,0,0,0,0,0,0,0,0,0,0,0,0,0,0,0,0,0,0,0,0,0,0,0,0,0,0,0,0,0,0,0,0,0,0,0,0,0,0,0,0,0,0,0,0,0,0,0,0,0,0,0,0,0,0,0,0,0,0,0,0,0,0,0,0,0,0,0,0,0,0,0,0,0,0,0,0,0,0,0,0,0,0,0,0,0,0,0,0,0,0,0,0,0,0,0,0,0,0,0],"sum_hessian":[5.9012E4,2.6736E4,3.2276E4,1.2444E4,1.4292E4,2.1195E4,1.1081E4,9.392E3,3.052E3,7.854E3,6.438E3,1.9993E4,1.202E3,4.834E3,6.247E3,6.624E3,2.768E3,9.54E2,2.098E3,6.475E3,1.379E3,5.102E3,1.336E3,4.593E3,1.54E4,5.53E2,6.49E2,7.88E2,4.046E3,3.721E3,2.526E3,5.504E3,1.12E3,7.8E2,1.988E3,5.88E2,3.66E2,1.082E3,1.016E3,1.066E3,5.409E3,6.01E2,7.78E2,2.155E3,2.947E3,5.95E2,7.41E2,1.28E2,4.465E3,6.764E3,8.636E3,1.44E2,4.09E2,4.39E2,2.1E2,6.9E2,9.8E1,1.29E3,2.756E3,7.43E2,2.978E3,3.86E2,2.14E3,2.474E3,3.03E3,1.47E2,9.73E2,5.07E2,2.73E2,1.163E3,8.25E2,1.82E2,4.06E2,1.47E2,2.19E2,4.9E2,5.92E2,7.07E2,3.09E2,9.12E2,1.54E2,3.237E3,2.172E3,5.27E2,7.4E1,4.7E1,7.31E2,8.61E2,1.294E3,1.243E3,1.704E3,1.82E2,4.13E2,3.76E2,3.65E2,8.6E1,4.2E1,2.712E3,1.753E3,4.918E3,1.846E3,3.197E3,5.439E3,7.8E1,6.6E1,1.53E2,2.56E2,3.4E1,4.05E2,1.8E2,3E1,4.9E2,2E2,6.6E1,3.2E1,1.272E3,1.8E1,1.96E3,7.96E2,2.12E2,5.31E2,4.01E2,2.577E3,2.81E2,1.05E2,1.09E3,1.05E3],"tree_param":{"num_deleted":"0","num_feature":"8","num_nodes":"127","size_leaf_vector":"1"}},{"base_weights":[-1.3931811E-2,-2.2522522E2,1.8654227E2,-3.6525327E2,-1.0328623E2,4.538432E2,-3.2472803E2,-4.2450363E2,-1.8284123E2,1.280713E1,-2.4489363E2,4.7449503E2,1.10230286E2,-4.0022797E2,-2.6625058E2,-4.5965543E2,-2.8771545E2,8.306658E1,-3.0373648E2,6.728446E1,-2.4285086E2,-3.1017368E2,4.447443E0,3.2701907E2,5.1845514E2,-3.0982385E2,4.6807608E2,-1.5801E2,-4.473517E2,-1.9012373E2,-3.782719E2,-5.2168866E2,-4.363055E2,-4.4511526E2,-2.2703976E2,2.2112886E2,-2.2505563E2,-1.3445502E2,-4.3419116E2,1.1722684E2,-3.1051819E1,-3.237263E2,-1.8003975E2,-1.4570079E2,-3.5507193E2,2.0494922E2,-1.5660849E2,9.108505E1,3.7368997E2,6.0713824E2,4.0993585E2,1.8764338E1,-4.252762E2,3.777449E2,6.542261E2,-2.0720035E2,1.8692479E2,-5.1756494E2,-4.1431122E2,-3.5843527E2,-1.480244E2,-1.004862E2,-4.2830685E2,-4.9894047E0,-5.735126E0,-3.8635995E0,-5.2072673E0,-4.117841E0,-5.520024E0,-1.2049705E0,-3.6877534E0,-1.5955853E0,3.8580642E0,-5.105585E0,-3.2921356E-1,-3.68605E0,5.8916605E-1,-3.3355625E0,-5.12921E0,4.3256178E-1,1.8124954E0,-5.4137033E-1,2.1991777E0,-3.625401E0,-4.616077E-1,2.6268413E0,-2.0882485E0,-9.4394386E-2,-2.395365E0,-3.0184097E0,-4.1344275E0,-3.350755E-1,3.0985897E0,-2.6203172E0,1.0644754E0,3.8215625E0,-3.6145537E0,3.0608766E0,5.2572184E0,4.304521E0,6.309922E0,6.8289447E0,2.4248176E0,1.3193938E0,-1.1496092E0,-4.79215E0,-3.275766E0,1.0550079E0,4.2896543E0,7.061489E0,5.149706E0,-1.3475388E0,-3.8314068E0,5.4914265E0,-5.541516E0,-5.251965E0,2.0990491E-1,-3.7500916E0,-5.104932E0,-3.225001E0,-4.6924033E0,-2.8500314E0,-1.2660722E0,-1.3049196E-1,-3.321536E0,-4.450809E0,-2.8700135E0],"categories":[],"categories_nodes":[],"categories_segments":[],"categories_sizes":[],"default_left":[0,0,0,0,0,0,0,0,0,0,0,0,0,0,0,0,0,0,0,0,0,0,0,0,0,0,0,0,0,0,0,0,0,0,0,0,0,0,0,0,0,0,0,0,0,0,0,0,0,0,0,0,0,0,0,0,0,0,0,0,0,0,0,0,0,0,0,0,0,0,0,0,0,0,0,0,0,0,0,0,0,0,0,0,0,0,0,0,0,0,0,0,0,0,0,0,0,0,0,0,0,0,0,0,0,0,0,0,0,0,0,0,0,0,0,0,0,0,0,0,0,0,0,0,0,0,0],"id":13,"left_children":[1,3,5,7,9,11,13,15,17,19,21,23,25,27,29,31,33,35,37,39,41,43,45,47,49,51,53,55,57,59,61,63,65,67,69,71,73,75,77,79,81,83,85,87,89,91,93,95,97,99,101,103,105,107,109,111,113,115,117,119,121,123,125,-1,-1,-1,-1,-1,-1,-1,-1,-1,-1,-1,-1,-1,-1,-1,-1,-1,-1,-1,-1,-1,-1,-1,-1,-1,-1,-1,-1,-1,-1,-1,-1,-1,-1,-1,-1,-1,-1,-1,-1,-1,-1,-1,-1,-1,-1,-1,-1,-1,-1,-1,-1,-1,-1,-1,-1,-1,-1,-1,-1,-1,-1,-1,-1],"loss_changes":[2.4794476E9,4.564932E8,4.4112205E9,1.3442778E8,2.3497546E8,1.5035904E8,4.8820864E7,4.5032576E7,9.817E7,1.0941736E8,1.0480899E8,1.2945254E8,1.809735E8,5.5117056E7,5.3209984E7,1.059392E7,1.826424E7,4.0675516E7,4.629501E7,3.1808236E7,6.951944E6,3.763155E7,4.32065E7,5.055165E7,1.4796749E8,2.102468E7,1.068272E7,1.3426058E7,9.174144E6,2.632032E7,3.507971E7,2.11648E6,2.271104E7,1.675168E6,2.0945808E7,4.14374E7,1.622024E7,4.1451052E7,9.217632E6,2.0332424E7,1.2653732E7,6.46884E6,9.982322E6,1.4011394E7,1.2328608E7,1.492018E7,2.0605206E7,1.0024646E8,3.925405E7,3.5439616E7,3.1654554E8,2.2096505E6,2.00364E6,6.090312E6,1.161992E6,8.756032E6,2.687899E7,5.317088E6,1.0230432E7,2.81112E6,8.703404E6,7.834857E6,4.947008E6,0E0,0E0,0E0,0E0,0E0,0E0,0E0,0E0,0E0,0E0,0E0,0E0,0E0,0E0,0E0,0E0,0E0,0E0,0E0,0E0,0E0,0E0,0E0,0E0,0E0,0E0,0E0,0E0,0E0,0E0,0E0,0E0,0E0,0E0,0E0,0E0,0E0,0E0,0E0,0E0,0E0,0E0,0E0,0E0,0E0,0E0,0E0,0E0,0E0,0E0,0E0,0E0,0E0,0E0,0E0,0E0,0E0,0E0,0E0,0E0,0E0,0E0,0E0,0E0],"parents":[2147483647,0,0,1,1,2,2,3,3,4,4,5,5,6,6,7,7,8,8,9,9,10,10,11,11,12,12,13,13,14,14,15,15,16,16,17,17,18,18,19,19,20,20,21,21,22,22,23,23,24,24,25,25,26,26,27,27,28,28,29,29,30,30,31,31,32,32,33,33,34,34,35,35,36,36,37,37,38,38,39,39,40,40,41,41,42,42,43,43,44,44,45,45,46,46,47,47,48,48,49,49,50,50,51,51,52,52,53,53,54,54,55,55,56,56,57,57,58,58,59,59,60,60,61,61,62,62],"right_children":[2,4,6,8,10,12,14,16,18,20,22,24,26,28,30,32,34,36,38,40,42,44,46,48,50,52,54,56,58,60,62,64,66,68,70,72,74,76,78,80,82,84,86,88,90,92,94,96,98,100,102,104,106,108,110,112,114,116,118,120,122,124,126,-1,-1,-1,-1,-1,-1,-1,-1,-1,-1,-1,-1,-1,-1,-1,-1,-1,-1,-1,-1,-1,-1,-1,-1,-1,-1,-1,-1,-1,-1,-1,-1,-1,-1,-1,-1,-1,-1,-1,-1,-1,-1,-1,-1,-1,-1,-1,-1,-1,-1,-1,-1,-1,-1,-1,-1,-1,-1,-1,-1,-1,-1,-1,-1],"split_conditions":[1.59E2,1.3E1,2.57E2,1.2E2,1.9E1,2.51E2,1.1E1,1.1E1,1.3E2,1.23E2,1.2E2,2.7E1,2.019E3,2.66E2,1.9E1,3.1E1,3.5E1,8E0,5E0,8.4E1,1.3E1,2E1,9E0,1.1E1,1.6E1,9E0,1.7E1,2.1E1,4E0,4E1,3.9E1,1.9E1,7.7E1,2.2E1,8E1,2.019E3,3E0,1.45E2,1.4E1,4.1E1,1.2E2,1.57E2,1.5E1,4.8E1,2.2E1,2.019E3,2.8E1,2.019E3,1.7E1,3E0,2.019E3,1.3E1,1.3E1,3E0,2.2E1,8E0,6E0,2.019E3,2.4E1,2.019E3,1.2E1,5E0,3.55E2,-4.9894047E0,-5.735126E0,-3.8635995E0,-5.2072673E0,-4.117841E0,-5.520024E0,-1.2049705E0,-3.6877534E0,-1.5955853E0,3.8580642E0,-5.105585E0,-3.2921356E-1,-3.68605E0,5.8916605E-1,-3.3355625E0,-5.12921E0,4.3256178E-1,1.8124954E0,-5.4137033E-1,2.1991777E0,-3.625401E0,-4.616077E-1,2.6268413E0,-2.0882485E0,-9.4394386E-2,-2.395365E0,-3.0184097E0,-4.1344275E0,-3.350755E-1,3.0985897E0,-2.6203172E0,1.0644754E0,3.8215625E0,-3.6145537E0,3.0608766E0,5.2572184E0,4.304521E0,6.309922E0,6.8289447E0,2.4248176E0,1.3193938E0,-1.1496092E0,-4.79215E0,-3.275766E0,1.0550079E0,4.2896543E0,7.061489E0,5.149706E0,-1.3475388E0,-3.8314068E0,5.4914265E0,-5.541516E0,-5.251965E0,2.0990491E-1,-3.7500916E0,-5.104932E0,-3.225001E0,-4.6924033E0,-2.8500314E0,-1.2660722E0,-1.3049196E-1,-3.321536E0,-4.450809E0,-2.8700135E0],"split_indices":[6,0,6,6,0,6,0,0,6,6,6,7,4,6,0,6,6,0,0,6,2,0,2,2,2,2,0,2,0,7,7,2,6,6,6,4,5,6,2,6,6,6,2,6,0,4,2,4,0,0,4,0,0,0,0,0,5,4,2,4,0,5,6,0,0,0,0,0,0,0,0,0,0,0,0,0,0,0,0,0,0,0,0,0,0,0,0,0,0,0,0,0,0,0,0,0,0,0,0,0,0,0,0,0,0,0,0,0,0,0,0,0,0,0,0,0,0,0,0,0,0,0,0,0,0,0,0],"split_type":[0,0,0,0,0,0,0,0,0,0,0,0,0,0,0,0,0,0,0,0,0,0,0,0,0,0,0,0,0,0,0,0,0,0,0,0,0,0,0,0,0,0,0,0,0,0,0,0,0,0,0,0,0,0,0,0,0,0,0,0,0,0,0,0,0,0,0,0,0,0,0,0,0,0,0,0,0,0,0,0,0,0,0,0,0,0,0,0,0,0,0,0,0,0,0,0,0,0,0,0,0,0,0,0,0,0,0,0,0,0,0,0,0,0,0,0,0,0,0,0,0,0,0,0,0,0,0],"sum_hessian":[5.9012E4,2.6736E4,3.2276E4,1.2444E4,1.4292E4,2.1195E4,1.1081E4,9.392E3,3.052E3,7.854E3,6.438E3,1.9993E4,1.202E3,4.834E3,6.247E3,7.47E3,1.922E3,9.54E2,2.098E3,6.475E3,1.379E3,5.102E3,1.336E3,4.593E3,1.54E4,5.53E2,6.49E2,7.88E2,4.046E3,3.721E3,2.526E3,2.037E3,5.433E3,5.33E2,1.389E3,6.59E2,2.95E2,9.14E2,1.184E3,4.294E3,2.181E3,6.01E2,7.78E2,1.095E3,4.007E3,5.95E2,7.41E2,7.59E2,3.834E3,8.472E3,6.928E3,1.44E2,4.09E2,4.39E2,2.1E2,6.9E2,9.8E1,1.29E3,2.756E3,7.43E2,2.978E3,3.86E2,2.14E3,1.423E3,6.14E2,3.417E3,2.016E3,4.1E2,1.23E2,7.94E2,5.95E2,1.99E2,4.6E2,1.18E2,1.77E2,4.13E2,5.01E2,5.22E2,6.62E2,1.993E3,2.301E3,1.998E3,1.83E2,5.27E2,7.4E1,4.7E1,7.31E2,4.47E2,6.48E2,2.099E3,1.908E3,1.82E2,4.13E2,5.29E2,2.12E2,4.62E2,2.97E2,2.656E3,1.178E3,1.01E3,7.462E3,2.633E3,4.295E3,7.8E1,6.6E1,2.61E2,1.48E2,7E1,3.69E2,1.5E2,6E1,4.9E2,2E2,6.6E1,3.2E1,1.272E3,1.8E1,1.96E3,7.96E2,5.64E2,1.79E2,4.01E2,2.577E3,2.81E2,1.05E2,1.911E3,2.29E2],"tree_param":{"num_deleted":"0","num_feature":"8","num_nodes":"127","size_leaf_vector":"1"}},{"base_weights":[-1.4827514E-2,-2.2297511E2,1.8467673E2,-3.6160468E2,-1.0225393E2,4.4930658E2,-3.2148453E2,-4.2026224E2,-1.8101765E2,1.267911E1,-2.42446E2,4.697515E2,1.0913601E2,-3.9622968E2,-2.6359174E2,-4.6466705E2,-3.138693E2,8.223258E1,-3.0070462E2,6.661223E1,-2.4042491E2,-3.0707382E2,4.403876E0,3.2375076E2,5.132719E2,-3.0673987E2,4.6342233E2,-1.5643652E2,-4.4288165E2,-1.8822574E2,-3.7449347E2,-4.4811578E2,-5.455324E2,-4.6935577E2,-2.526582E2,2.4347607E2,-1.7677193E2,-1.5793288E2,-4.5244614E2,-8.981172E1,9.7451E1,-3.204958E2,-1.7823865E2,-1.4424603E2,-3.5152298E2,2.0290437E2,-1.5504451E2,-2.9169348E2,3.4145532E2,6.010681E2,4.0583786E2,1.8577858E1,-4.2104312E2,3.7397958E2,6.477417E2,-2.0513583E2,1.8505501E2,-5.123932E2,-4.1017136E2,-3.5486157E2,-1.4654555E2,-9.949026E1,-4.2402722E2,-5.0254765E0,-4.0352097E0,-4.5515366E0,-5.7311783E0,-5.126337E0,-3.8740485E0,-1.5450734E0,-3.9066663E0,-1.3148781E0,4.114734E0,-4.565255E0,1.2229468E-1,-3.8613698E0,3.1284916E-1,-5.04088E0,-3.3304315E0,-2.5470088E0,-3.9570925E-1,1.6258471E0,3.5001268E-3,-3.5892153E0,-4.5705318E-1,2.6011202E0,-2.0673945E0,-9.345228E-2,-2.371448E0,-2.9882398E0,-4.093105E0,-3.3174297E-1,3.0676787E0,-3.1769369E0,1.2916659E-1,-4.76509E0,8.901923E-1,2.6726432E0,4.560156E0,4.261519E0,6.2468314E0,6.760681E0,2.4005752E0,1.3063668E0,-1.1382848E0,-5.137805E0,-3.6383452E0,7.7582226E0,3.3841684E0,6.801414E0,4.3767414E0,-1.3340908E0,-3.7932832E0,5.437331E0,-5.48778E0,-5.1994867E0,2.079164E-1,-3.71261E0,-5.0539465E0,-4.335263E0,-3.0507295E0,-2.8216019E0,-1.2534165E0,-1.2919165E-1,-3.2886343E0,-4.716487E0,-3.7418983E0],"categories":[],"categories_nodes":[],"categories_segments":[],"categories_sizes":[],"default_left":[0,0,0,0,0,0,0,0,0,0,0,0,0,0,0,0,0,0,0,0,0,0,0,0,0,0,0,0,0,0,0,0,0,0,0,0,0,0,0,0,0,0,0,0,0,0,0,0,0,0,0,0,0,0,0,0,0,0,0,0,0,0,0,0,0,0,0,0,0,0,0,0,0,0,0,0,0,0,0,0,0,0,0,0,0,0,0,0,0,0,0,0,0,0,0,0,0,0,0,0,0,0,0,0,0,0,0,0,0,0,0,0,0,0,0,0,0,0,0,0,0,0,0,0,0,0,0],"id":14,"left_children":[1,3,5,7,9,11,13,15,17,19,21,23,25,27,29,31,33,35,37,39,41,43,45,47,49,51,53,55,57,59,61,63,65,67,69,71,73,75,77,79,81,83,85,87,89,91,93,95,97,99,101,103,105,107,109,111,113,115,117,119,121,123,125,-1,-1,-1,-1,-1,-1,-1,-1,-1,-1,-1,-1,-1,-1,-1,-1,-1,-1,-1,-1,-1,-1,-1,-1,-1,-1,-1,-1,-1,-1,-1,-1,-1,-1,-1,-1,-1,-1,-1,-1,-1,-1,-1,-1,-1,-1,-1,-1,-1,-1,-1,-1,-1,-1,-1,-1,-1,-1,-1,-1,-1,-1,-1,-1],"loss_changes":[2.4301302E9,4.474208E8,